{"learner":{"attributes":{"scikit_learn":"{\"_estimator_type\": \"regressor\"}"},"feature_names":["PM10","SO2","NO2","CO","O3","TEMP","PRES","DEWP","RAIN","WSPM","wd","hour","month"],"feature_types":["float","float","float","float","float","float","float","float","float","float","c","int","int"],"gradient_booster":{"model":{"cats":{"enc":[{"offsets":[],"values":[]},{"offsets":[],"values":[]},{"offsets":[],"values":[]},{"offsets":[],"values":[]},{"offsets":[],"values":[]},{"offsets":[],"values":[]},{"offsets":[],"values":[]},{"offsets":[],"values":[]},{"offsets":[],"values":[]},{"offsets":[],"values":[]},{"offsets":[0,1,4,7,8,10,13,16,18,19,21,24,27,29,30,33,36],"values":[69,69,78,69,69,83,69,78,78,69,78,78,69,78,78,87,78,87,83,83,69,83,83,69,83,83,87,83,87,87,87,78,87,87,83,87]},{"offsets":[],"values":[]},{"offsets":[],"values":[]}],"feature_segments":[0,0,0,0,0,0,0,0,0,0,0,16,16,16],"sorted_idx":[0,1,2,3,4,5,6,7,8,9,10,11,12,13,14,15]},"gbtree_model_param":{"num_parallel_tree":"1","num_trees":"200"},"iteration_indptr":[0,1,2,3,4,5,6,7,8,9,10,11,12,13,14,15,16,17,18,19,20,21,22,23,24,25,26,27,28,29,30,31,32,33,34,35,36,37,38,39,40,41,42,43,44,45,46,47,48,49,50,51,52,53,54,55,56,57,58,59,60,61,62,63,64,65,66,67,68,69,70,71,72,73,74,75,76,77,78,79,80,81,82,83,84,85,86,87,88,89,90,91,92,93,94,95,96,97,98,99,100,101,102,103,104,105,106,107,108,109,110,111,112,113,114,115,116,117,118,119,120,121,122,123,124,125,126,127,128,129,130,131,132,133,134,135,136,137,138,139,140,141,142,143,144,145,146,147,148,149,150,151,152,153,154,155,156,157,158,159,160,161,162,163,164,165,166,167,168,169,170,171,172,173,174,175,176,177,178,179,180,181,182,183,184,185,186,187,188,189,190,191,192,193,194,195,196,197,198,199,200],"tree_info":[0,0,0,0,0,0,0,0,0,0,0,0,0,0,0,0,0,0,0,0,0,0,0,0,0,0,0,0,0,0,0,0,0,0,0,0,0,0,0,0,0,0,0,0,0,0,0,0,0,0,0,0,0,0,0,0,0,0,0,0,0,0,0,0,0,0,0,0,0,0,0,0,0,0,0,0,0,0,0,0,0,0,0,0,0,0,0,0,0,0,0,0,0,0,0,0,0,0,0,0,0,0,0,0,0,0,0,0,0,0,0,0,0,0,0,0,0,0,0,0,0,0,0,0,0,0,0,0,0,0,0,0,0,0,0,0,0,0,0,0,0,0,0,0,0,0,0,0,0,0,0,0,0,0,0,0,0,0,0,0,0,0,0,0,0,0,0,0,0,0,0,0,0,0,0,0,0,0,0,0,0,0,0,0,0,0,0,0,0,0,0,0,0,0,0,0,0,0,0,0],"trees":[{"base_weights":[4.0108603E-1,-2.7917107E1,1.4253258E2,-5.727984E1,1.1891437E1,1.1038179E2,2.4468991E2,-6.7533226E1,-3.8069614E1,-2.4530672E1,2.2894505E1,-2.8180715E-2,1.1748476E2,-5.6578965E0,2.6876303E2,-7.497827E1,-5.9373272E1,-5.7294716E1,-3.1514488E1,-4.165884E1,-1.3745181E1,4.122304E0,4.2255836E1,-3.0029558E1,9.078756E1,9.4443855E1,1.5138213E2,1.0833185E2,-2.266206E1,2.3761525E2,4.0939435E2,-7.8818954E1,-7.2802986E1,-6.0069542E1,6.4419312E0,-7.2501015E1,-5.246756E1,-3.8388424E1,-2.5069357E1,-4.531591E1,1.6201077E1,-1.7014374E1,9.580635E0,3.6987913E0,3.7741558E1,3.1280127E1,5.351827E1,-4.6337795E1,1.6842688E0,2.6959995E1,1.2034639E2,7.3857445E1,1.0156578E2,1.3402696E2,1.6469258E2,1.5181999E2,-2.9251115E0,4.9498665E1,-2.8700302E1,2.081264E2,2.6567462E2,4.409117E2,7.586305E1,-7.8859863E0,-1.6438335E0,-6.970901E0,-7.513697E0,-6.801975E0,-5.3911324E0,-8.6016047E-1,5.924857E0,-5.782595E0,-7.5478716E0,-5.8752704E0,-4.358325E0,-4.150664E0,-3.1209414E0,-3.4753997E0,-2.2378852E0,-6.4816284E0,-3.8512475E0,3.4096736E-1,7.053428E0,-2.2690713E0,-2.9389608E-1,3.9862093E-1,4.106092E0,-5.2063596E-1,1.2743129E0,2.7423873E0,4.8036404E0,4.720198E0,6.326683E0,-3.3518987E0,-5.69824E0,5.4331846E0,-1.3654842E0,6.5498667E0,2.5540707E-1,1.282484E1,1.9648886E0,6.6876373E0,1.0276328E1,8.511546E0,1.0742275E1,1.0732168E1,1.3965609E1,1.6636137E1,1.9105711E0,-3.9177808E-1,2.1489866E1,6.10925E0,1.5616646E-1,3.534282E-1,-3.2639139E0,2.1066574E1,2.4298666E0,2.7286915E1,1.7029188E1,3.7992107E1,4.894713E1,2.5810997E0,2.1741554E1],"categories":[0,2,3,4,5,6,7,9,12,14,3,5,6,7,14,1,3,4,5,6,7,14],"categories_nodes":[28,32,35],"categories_segments":[0,10,15],"categories_sizes":[10,5,7],"default_left":[0,0,0,0,0,0,0,0,0,0,0,0,0,0,0,0,0,0,0,0,0,0,0,0,0,0,0,0,1,0,0,0,1,0,0,1,0,0,0,0,0,0,0,0,0,0,0,0,0,0,0,0,0,0,0,0,0,0,0,0,0,0,0,0,0,0,0,0,0,0,0,0,0,0,0,0,0,0,0,0,0,0,0,0,0,0,0,0,0,0,0,0,0,0,0,0,0,0,0,0,0,0,0,0,0,0,0,0,0,0,0,0,0,0,0,0,0,0,0,0,0,0,0],"id":0,"left_children":[1,3,5,7,9,11,13,15,17,19,21,23,25,27,29,31,33,35,37,39,41,43,45,47,49,51,53,55,57,59,61,63,65,67,69,71,73,75,77,79,81,83,85,87,-1,89,91,93,95,97,99,101,103,105,107,109,-1,111,113,115,117,119,121,-1,-1,-1,-1,-1,-1,-1,-1,-1,-1,-1,-1,-1,-1,-1,-1,-1,-1,-1,-1,-1,-1,-1,-1,-1,-1,-1,-1,-1,-1,-1,-1,-1,-1,-1,-1,-1,-1,-1,-1,-1,-1,-1,-1,-1,-1,-1,-1,-1,-1,-1,-1,-1,-1,-1,-1,-1,-1,-1,-1],"loss_changes":[7.7402936E7,1.8744964E7,1.0466772E7,1.815262E6,2.7289015E6,1.907276E6,4.605884E6,3.61026E5,4.03232E5,2.913098E5,1.900331E6,4.059667E5,1.770344E6,1.3425944E5,2.955828E6,2.051E4,1.32135E5,5.6093E4,1.0532175E5,1.29808875E5,7.420816E4,4.1850262E5,3.165065E5,5.800407E4,6.656222E4,1.92335E5,1.91146E5,5.828997E4,2.7564066E4,4.18828E5,1.280554E6,1.5725E3,9.343E3,1.35622E5,2.5135986E4,4.112875E3,3.2227125E4,2.46495E4,3.1558438E4,7.3656E4,2.5474426E4,6.800541E4,2.0970016E4,2.1382269E5,0E0,8.3071625E4,7.5152E4,8.1874062E3,3.2237008E4,1.2060145E4,1.7372875E4,6.45625E4,8.817E4,4.6044E4,1.22671E5,6.960805E4,0E0,2.683463E3,7.2254883E3,1.27452E5,1.52538E5,1.51672E5,7.940821E4,0E0,0E0,0E0,0E0,0E0,0E0,0E0,0E0,0E0,0E0,0E0,0E0,0E0,0E0,0E0,0E0,0E0,0E0,0E0,0E0,0E0,0E0,0E0,0E0,0E0,0E0,0E0,0E0,0E0,0E0,0E0,0E0,0E0,0E0,0E0,0E0,0E0,0E0,0E0,0E0,0E0,0E0,0E0,0E0,0E0,0E0,0E0,0E0,0E0,0E0,0E0,0E0,0E0,0E0,0E0,0E0,0E0,0E0,0E0,0E0],"parents":[2147483647,0,0,1,1,2,2,3,3,4,4,5,5,6,6,7,7,8,8,9,9,10,10,11,11,12,12,13,13,14,14,15,15,16,16,17,17,18,18,19,19,20,20,21,21,22,22,23,23,24,24,25,25,26,26,27,27,28,28,29,29,30,30,31,31,32,32,33,33,34,34,35,35,36,36,37,37,38,38,39,39,40,40,41,41,42,42,43,43,45,45,46,46,47,47,48,48,49,49,50,50,51,51,52,52,53,53,54,54,55,55,57,57,58,58,59,59,60,60,61,61,62,62],"right_children":[2,4,6,8,10,12,14,16,18,20,22,24,26,28,30,32,34,36,38,40,42,44,46,48,50,52,54,56,58,60,62,64,66,68,70,72,74,76,78,80,82,84,86,88,-1,90,92,94,96,98,100,102,104,106,108,110,-1,112,114,116,118,120,122,-1,-1,-1,-1,-1,-1,-1,-1,-1,-1,-1,-1,-1,-1,-1,-1,-1,-1,-1,-1,-1,-1,-1,-1,-1,-1,-1,-1,-1,-1,-1,-1,-1,-1,-1,-1,-1,-1,-1,-1,-1,-1,-1,-1,-1,-1,-1,-1,-1,-1,-1,-1,-1,-1,-1,-1,-1,-1,-1,-1],"split_conditions":[1.91E2,8.4E1,3.21E2,5E1,1E3,1E3,4.41395E1,6E2,7E2,7E2,1.31E2,2.4E1,2.47E2,6E0,4.93E2,1.5E1,5.7E1,-1.24E1,6.7E1,2.3E1,1.92E1,1.33E2,1.56E2,-1.3E0,4.57819E1,1.5E3,2.71E2,1E2,1E-45,3.74E2,5.5E0,2.9E1,1E-45,2.9E1,1E2,1E-45,5.712E0,1.67E1,9E2,-9.1E0,1.47E2,1.31E2,1.3E2,1.08E2,3.7741558E1,1.95E1,1.9E3,3.9E0,5.7E1,5.46E1,2.23E1,2.06E1,2.04E2,1.7E3,4E0,-1.55E1,-2.9251115E0,4.44E2,2.3E0,3.5E0,1.57E1,5.81E2,5.1E0,-7.8859863E0,-1.6438335E0,-6.970901E0,-7.513697E0,-6.801975E0,-5.3911324E0,-8.6016047E-1,5.924857E0,-5.782595E0,-7.5478716E0,-5.8752704E0,-4.358325E0,-4.150664E0,-3.1209414E0,-3.4753997E0,-2.2378852E0,-6.4816284E0,-3.8512475E0,3.4096736E-1,7.053428E0,-2.2690713E0,-2.9389608E-1,3.9862093E-1,4.106092E0,-5.2063596E-1,1.2743129E0,2.7423873E0,4.8036404E0,4.720198E0,6.326683E0,-3.3518987E0,-5.69824E0,5.4331846E0,-1.3654842E0,6.5498667E0,2.5540707E-1,1.282484E1,1.9648886E0,6.6876373E0,1.0276328E1,8.511546E0,1.0742275E1,1.0732168E1,1.3965609E1,1.6636137E1,1.9105711E0,-3.9177808E-1,2.1489866E1,6.10925E0,1.5616646E-1,3.534282E-1,-3.2639139E0,2.1066574E1,2.4298666E0,2.7286915E1,1.7029188E1,3.7992107E1,4.894713E1,2.5810997E0,2.1741554E1],"split_indices":[0,0,0,0,3,3,2,3,3,3,0,1,0,2,0,0,1,7,0,1,7,1,0,7,2,3,0,4,10,0,5,1,10,0,2,10,1,7,3,7,0,0,0,0,0,7,3,9,4,4,5,7,0,3,9,7,0,0,9,9,5,0,7,0,0,0,0,0,0,0,0,0,0,0,0,0,0,0,0,0,0,0,0,0,0,0,0,0,0,0,0,0,0,0,0,0,0,0,0,0,0,0,0,0,0,0,0,0,0,0,0,0,0,0,0,0,0,0,0,0,0,0,0],"split_type":[0,0,0,0,0,0,0,0,0,0,0,0,0,0,0,0,0,0,0,0,0,0,0,0,0,0,0,0,1,0,0,0,1,0,0,1,0,0,0,0,0,0,0,0,0,0,0,0,0,0,0,0,0,0,0,0,0,0,0,0,0,0,0,0,0,0,0,0,0,0,0,0,0,0,0,0,0,0,0,0,0,0,0,0,0,0,0,0,0,0,0,0,0,0,0,0,0,0,0,0,0,0,0,0,0,0,0,0,0,0,0,0,0,0,0,0,0,0,0,0,0,0,0],"sum_hessian":[1.9229E4,1.6035E4,3.194E3,9.228E3,6.807E3,2.431E3,7.63E2,6.015E3,3.213E3,1.579E3,5.228E3,1.47E2,2.284E3,6.7E1,6.96E2,3.141E3,2.874E3,8.15E2,2.398E3,6.09E2,9.7E2,2.655E3,2.573E3,1.11E2,3.6E1,1.362E3,9.22E2,8E0,5.9E1,5.72E2,1.24E2,1.123E3,2.018E3,2.844E3,3E1,1.93E2,6.22E2,1.158E3,1.24E3,5.73E2,3.6E1,8.51E2,1.19E2,2.653E3,2E0,1.305E3,1.268E3,7.3E1,3.8E1,1.2E1,2.4E1,3.53E2,1.009E3,4.05E2,5.17E2,6E0,2E0,4E0,5.5E1,2.83E2,2.89E2,1.13E2,1.1E1,1.122E3,1E0,8.81E2,1.137E3,1.237E3,1.607E3,2.4E1,6E0,3.6E1,1.57E2,3.61E2,2.61E2,8.04E2,3.54E2,2.67E2,9.73E2,1.46E2,4.27E2,3E1,6E0,6.06E2,2.45E2,1.02E2,1.7E1,1.337E3,1.316E3,1.063E3,2.42E2,7.73E2,4.95E2,3.5E1,3.8E1,8E0,3E1,4E0,8E0,2.2E1,2E0,2.87E2,6.6E1,2.69E2,7.4E2,7.4E1,3.31E2,5.11E2,6E0,2E0,4E0,3E0,1E0,6E0,4.9E1,2.79E2,4E0,2.67E2,2.2E1,5.4E1,5.9E1,9E0,2E0],"tree_param":{"num_deleted":"0","num_feature":"13","num_nodes":"123","size_leaf_vector":"1"}},{"base_weights":[2.2650829E-1,-2.6931387E1,8.647548E1,-5.3171436E1,1.0166272E0,6.213105E1,1.7183368E2,-5.4084557E1,5.0191433E1,-1.7254717E0,9.1370476E1,4.644848E1,1.0750277E2,1.4897684E2,2.786872E2,-6.26534E1,-4.2699223E1,9.795845E1,3.7199233E0,-3.5387756E1,5.5287166E0,4.3936314E1,1.7442628E2,4.026735E1,7.355448E1,6.860834E1,1.1699008E2,1.2280246E2,1.8126607E2,3.0622546E2,2.9219576E1,-6.3058502E1,2.2739153E1,-3.2105053E1,-4.864613E1,3.3088787E1,1.4401562E2,4.3924824E1,-7.9000454E0,-5.0502888E1,-1.7529894E1,-3.020449E0,2.45146E1,3.398192E1,1.6496806E2,1.3900894E2,2.187811E1,3.1767517E1,6.141186E1,7.09855E1,2.2171036E2,4.6632595E1,8.700537E1,7.8365425E1,1.2779505E2,7.937241E1,1.389048E2,1.4601173E2,1.9209608E2,1.687283E1,3.3127103E2,1.6469643E1,-4.5977154E1,-5.2304196E0,-6.53783E0,-4.3462276E0,8.687339E0,-3.5650003E0,-1.6699736E0,-6.153816E0,-4.433685E0,3.8905163E0,-3.145091E-1,1.2116602E1,2.2549156E1,-1.3303798E0,5.4000883E0,3.6141378E-1,-2.8986988E0,-6.4614153E0,-4.3269143E0,-2.463064E0,-3.9667895E-1,-4.3799287E-1,2.279269E1,1.1147817E0,3.4103432E0,3.5823133E0,-3.1130884E0,2.9626368E1,6.6375146E0,1.07958355E1,2.3689022E1,3.1199045E0,3.1678415E1,4.9722457E0,8.60617E0,2.8680897E0,7.8803353E0,3.5985268E1,1.1568748E1,5.4304233E0,1.6721855E0,1.0033012E1,5.5971346E0,6.0358243E0,1.0023257E1,1.162342E1,1.5894524E1,7.141769E0,1.5164246E1,1.8760733E1,1.1780331E1,1.3252937E1,1.687013E1,1.7397831E1,2.1790558E1,3.1155594E1,3.8799786E1,-5.7253895E0,-3.177245E0],"categories":[0,1,2,3,4,5,6,7,9,13,14,2,4,5,6,7,8,9,10,11,12,13,14,15,0,1,2,3,4,5,6,7,13,14,3,4,6,7,8,1,2,3,4,5,7,8,9,10,11,12,13,14,8,11,14,15,3,7,8,9,10,12,14,15],"categories_nodes":[16,18,31,35,38,44,51,52],"categories_segments":[0,11,24,34,35,39,52,56],"categories_sizes":[11,13,10,1,4,13,4,8],"default_left":[0,0,0,0,0,0,0,0,0,0,0,0,0,0,0,0,1,0,1,0,0,0,0,0,0,0,0,0,0,0,0,1,0,0,0,1,0,0,1,0,0,0,0,0,1,0,0,0,0,0,0,1,1,0,0,0,0,0,0,0,0,0,0,0,0,0,0,0,0,0,0,0,0,0,0,0,0,0,0,0,0,0,0,0,0,0,0,0,0,0,0,0,0,0,0,0,0,0,0,0,0,0,0,0,0,0,0,0,0,0,0,0,0,0,0,0,0,0,0,0,0],"id":1,"left_children":[1,3,5,7,9,11,13,15,17,19,21,23,25,27,29,31,33,35,37,39,41,43,45,47,49,51,53,55,57,59,61,63,65,67,69,71,73,75,77,79,81,83,85,87,89,91,-1,93,95,97,99,101,103,105,107,109,111,113,115,-1,117,-1,119,-1,-1,-1,-1,-1,-1,-1,-1,-1,-1,-1,-1,-1,-1,-1,-1,-1,-1,-1,-1,-1,-1,-1,-1,-1,-1,-1,-1,-1,-1,-1,-1,-1,-1,-1,-1,-1,-1,-1,-1,-1,-1,-1,-1,-1,-1,-1,-1,-1,-1,-1,-1,-1,-1,-1,-1,-1,-1],"loss_changes":[4.533599E7,1.0795074E7,9.62084E6,7.1927E5,1.7664331E6,2.562262E6,2.4692E6,7.31554E5,1.4836256E5,1.6900081E6,8.1967E5,4.465635E5,3.33671E5,6.95274E5,1.227635E6,1.49904E5,2.02252E5,9.382925E4,1.6698297E4,3.3031125E5,9.2428694E5,1.5704181E5,8.8978E4,3.91107E5,1.73425E5,7.033181E4,3.00067E5,3.190565E5,1.16274E5,5.01983E5,2.0113317E5,1.0316E5,9.2937055E4,6.3081125E4,1.12271E5,3.2836055E3,8.05025E3,5.3315303E3,6.903133E3,6.4983625E4,5.422008E4,1.2339515E6,2.2622762E5,1.6220922E4,1.09783625E5,1.11192875E5,0E0,2.4319838E5,1.760975E5,1.5979825E5,7.553953E4,1.882586E4,3.5322938E4,5.8921562E4,1.90036E5,6.3905562E4,3.303985E5,6.091625E3,9.5826E4,0E0,3.1216E4,0E0,2.6328125E2,0E0,0E0,0E0,0E0,0E0,0E0,0E0,0E0,0E0,0E0,0E0,0E0,0E0,0E0,0E0,0E0,0E0,0E0,0E0,0E0,0E0,0E0,0E0,0E0,0E0,0E0,0E0,0E0,0E0,0E0,0E0,0E0,0E0,0E0,0E0,0E0,0E0,0E0,0E0,0E0,0E0,0E0,0E0,0E0,0E0,0E0,0E0,0E0,0E0,0E0,0E0,0E0,0E0,0E0,0E0,0E0,0E0,0E0],"parents":[2147483647,0,0,1,1,2,2,3,3,4,4,5,5,6,6,7,7,8,8,9,9,10,10,11,11,12,12,13,13,14,14,15,15,16,16,17,17,18,18,19,19,20,20,21,21,22,22,23,23,24,24,25,25,26,26,27,27,28,28,29,29,30,30,31,31,32,32,33,33,34,34,35,35,36,36,37,37,38,38,39,39,40,40,41,41,42,42,43,43,44,44,45,45,47,47,48,48,49,49,50,50,51,51,52,52,53,53,54,54,55,55,56,56,57,57,58,58,60,60,62,62],"right_children":[2,4,6,8,10,12,14,16,18,20,22,24,26,28,30,32,34,36,38,40,42,44,46,48,50,52,54,56,58,60,62,64,66,68,70,72,74,76,78,80,82,84,86,88,90,92,-1,94,96,98,100,102,104,106,108,110,112,114,116,-1,118,-1,120,-1,-1,-1,-1,-1,-1,-1,-1,-1,-1,-1,-1,-1,-1,-1,-1,-1,-1,-1,-1,-1,-1,-1,-1,-1,-1,-1,-1,-1,-1,-1,-1,-1,-1,-1,-1,-1,-1,-1,-1,-1,-1,-1,-1,-1,-1,-1,-1,-1,-1,-1,-1,-1,-1,-1,-1,-1,-1],"split_conditions":[1.7E3,9E2,3.5E3,3.8E1,6E1,9.8E1,6.1E3,6E2,5E2,-8.2E0,9.8E1,2.8E3,-5.3E0,1.1E2,4E0,8.1E1,1E-45,-1.39E1,1E-45,2.2E1,1.3E3,1.15E2,8.9E1,4.3E1,1.33E2,2.7E3,2E3,-8.4E0,-8.3E0,-7.4E0,6.7E3,1E-45,9.4248E0,1.7E1,-8.3E0,1E-45,1.33E2,5E-1,1E-45,3.4E1,3.6E1,1.36E2,2.9E1,1.91E1,1E-45,1.45E2,2.187811E1,1.33E2,6.7E1,-1.13E1,6E0,1E-45,1E-45,1.4E1,1.36E2,1.15E2,-1.7E0,5E3,4.5E3,1.687283E1,8.5E3,1.6469643E1,7.4E3,-5.2304196E0,-6.53783E0,-4.3462276E0,8.687339E0,-3.5650003E0,-1.6699736E0,-6.153816E0,-4.433685E0,3.8905163E0,-3.145091E-1,1.2116602E1,2.2549156E1,-1.3303798E0,5.4000883E0,3.6141378E-1,-2.8986988E0,-6.4614153E0,-4.3269143E0,-2.463064E0,-3.9667895E-1,-4.3799287E-1,2.279269E1,1.1147817E0,3.4103432E0,3.5823133E0,-3.1130884E0,2.9626368E1,6.6375146E0,1.07958355E1,2.3689022E1,3.1199045E0,3.1678415E1,4.9722457E0,8.60617E0,2.8680897E0,7.8803353E0,3.5985268E1,1.1568748E1,5.4304233E0,1.6721855E0,1.0033012E1,5.5971346E0,6.0358243E0,1.0023257E1,1.162342E1,1.5894524E1,7.141769E0,1.5164246E1,1.8760733E1,1.1780331E1,1.3252937E1,1.687013E1,1.7397831E1,2.1790558E1,3.1155594E1,3.8799786E1,-5.7253895E0,-3.177245E0],"split_indices":[3,3,3,1,1,2,3,3,3,7,2,3,7,2,5,2,10,7,10,1,3,1,1,4,1,3,3,7,7,7,3,10,1,1,7,10,1,9,10,2,1,2,4,7,10,2,0,1,2,7,4,10,10,4,2,1,5,3,3,0,3,0,3,0,0,0,0,0,0,0,0,0,0,0,0,0,0,0,0,0,0,0,0,0,0,0,0,0,0,0,0,0,0,0,0,0,0,0,0,0,0,0,0,0,0,0,0,0,0,0,0,0,0,0,0,0,0,0,0,0,0],"split_type":[0,0,0,0,0,0,0,0,0,0,0,0,0,0,0,0,1,0,1,0,0,0,0,0,0,0,0,0,0,0,0,1,0,0,0,1,0,0,1,0,0,0,0,0,1,0,0,0,0,0,0,1,1,0,0,0,0,0,0,0,0,0,0,0,0,0,0,0,0,0,0,0,0,0,0,0,0,0,0,0,0,0,0,0,0,0,0,0,0,0,0,0,0,0,0,0,0,0,0,0,0,0,0,0,0,0,0,0,0,0,0,0,0,0,0,0,0,0,0,0,0],"sum_hessian":[1.9353E4,1.4719E4,4.634E3,7.591E3,7.128E3,3.607E3,1.027E3,7.525E3,6.6E1,6.919E3,2.09E2,2.682E3,9.25E2,8.48E2,1.79E2,4.291E3,3.234E3,3.2E1,3.4E1,1.226E3,5.693E3,1.34E2,7.5E1,2.186E3,4.96E2,1.83E2,7.42E2,4.71E2,3.77E2,1.61E2,1.8E1,4.271E3,2E1,1.165E3,2.069E3,1.4E1,1.8E1,7E0,2.7E1,6.63E2,5.63E2,3.926E3,1.767E3,1.25E2,9E0,4.4E1,3.1E1,1.561E3,6.25E2,4.89E2,7E0,8.5E1,9.8E1,1.64E2,5.78E2,1.29E2,3.42E2,9.2E1,2.85E2,2.6E1,1.35E2,6E0,1.2E1,7.62E2,3.509E3,1E1,1E1,9.46E2,2.19E2,5.15E2,1.554E3,1.2E1,2E0,1.6E1,2E0,1E0,6E0,1.8E1,9E0,2.22E2,4.41E2,3.69E2,1.94E2,3.904E3,2.2E1,7.39E2,1.028E3,1.22E2,3E0,3E0,6E0,3.5E1,9E0,1.559E3,2E0,4.26E2,1.99E2,7.7E1,4.12E2,2E0,5E0,6.7E1,1.8E1,6.7E1,3.1E1,9.2E1,7.2E1,4.25E2,1.53E2,1.18E2,1.1E1,1.01E2,2.41E2,6.2E1,3E1,1.72E2,1.13E2,1.05E2,3E1,5E0,7E0],"tree_param":{"num_deleted":"0","num_feature":"13","num_nodes":"121","size_leaf_vector":"1"}},{"base_weights":[-4.6385927E-3,-2.2799143E1,8.258907E1,-4.501255E1,6.097734E0,5.8079124E1,1.4997772E2,-5.3199486E1,-3.0720396E1,3.40414E0,8.169478E1,4.3641792E1,9.115196E1,1.3233153E2,2.863157E2,-5.4104652E1,8.337407E1,-3.605479E1,-1.8113218E1,-5.950782E0,1.7986437E1,2.4149149E2,4.9979576E1,3.5641956E1,6.36552E1,7.682375E1,1.2456567E2,1.0474967E2,1.5734349E2,3.3300916E2,2.4022728E2,-5.556166E1,-3.580205E1,5.7571384E1,1.543853E2,-3.295371E1,-4.7346E1,-2.289598E1,8.5892564E-1,-1.0814406E1,2.6647402E1,2.791444E1,-3.26746E0,3.771947E2,1.695711E2,2.5512306E1,1.6486993E2,3.4594326E1,2.9405347E2,5.248566E1,9.4656006E1,7.41387E1,1.338225E2,-4.6090927E1,1.3736165E2,9.755223E1,1.2825546E2,1.4100136E2,1.8892296E2,3.5006467E2,1.7839043E1,2.4537038E2,-4.960893E0,-5.594661E0,-1.6525122E0,8.791255E0,-3.7914522E0,2.9454098E0,9.834773E0,1.0835508E1,2.6131353E1,-3.9763868E0,-2.6363235E0,-4.854676E0,1.2383231E0,-3.2306638E0,-1.713844E0,-6.163016E-2,9.154496E0,-5.84258E-1,-4.0172014E0,2.0711532E0,1.2596954E1,1.7627966E0,3.6065605E0,-8.2383555E-1,3.3467312E0,2.7920563E0,4.0640865E1,1.192172E1,2.1075445E1,2.4337737E-1,5.0077143E0,1.1253402E1,1.975104E1,2.2091956E0,4.921749E0,-4.678456E0,3.71578E1,2.9023693E0,5.7366447E0,7.416782E0,1.272254E1,3.973541E-1,7.5627513E0,3.1983301E1,1.0721273E1,-5.5027575E0,-2.9054182E0,1.2494052E1,2.0358892E1,7.933558E0,1.1023901E1,5.3118696E0,1.354539E1,1.30275755E1,1.7290083E1,1.9126692E1,4.265985E0,3.6084194E1,1.2783286E1,2.6673023E1,1.7849447E1],"categories":[],"categories_nodes":[],"categories_segments":[],"categories_sizes":[],"default_left":[0,0,0,0,0,0,0,0,0,0,0,0,0,0,0,0,0,0,0,0,0,0,0,0,0,0,0,0,0,0,0,0,0,0,0,0,0,0,0,0,0,0,0,0,0,0,0,0,0,0,0,0,0,0,0,0,0,0,0,0,0,0,0,0,0,0,0,0,0,0,0,0,0,0,0,0,0,0,0,0,0,0,0,0,0,0,0,0,0,0,0,0,0,0,0,0,0,0,0,0,0,0,0,0,0,0,0,0,0,0,0,0,0,0,0,0,0,0,0,0,0,0,0],"id":2,"left_children":[1,3,5,7,9,11,13,15,17,19,21,23,25,27,29,31,33,35,37,39,41,43,45,47,49,51,53,55,57,59,61,63,65,67,69,71,73,75,77,79,81,83,85,87,89,91,93,95,97,99,101,103,105,107,109,111,113,115,117,119,-1,121,-1,-1,-1,-1,-1,-1,-1,-1,-1,-1,-1,-1,-1,-1,-1,-1,-1,-1,-1,-1,-1,-1,-1,-1,-1,-1,-1,-1,-1,-1,-1,-1,-1,-1,-1,-1,-1,-1,-1,-1,-1,-1,-1,-1,-1,-1,-1,-1,-1,-1,-1,-1,-1,-1,-1,-1,-1,-1,-1,-1,-1],"loss_changes":[3.614939E7,9.659558E6,6.850766E6,9.93876E5,1.3316509E6,1.450914E6,2.625384E6,6.73055E5,2.078945E5,8.6184844E5,1.1282271E6,3.37632E5,4.332815E5,6.60978E5,1.91157E5,1.41293E5,5.7073938E4,7.470225E4,8.386275E4,6.105291E5,5.2107188E5,2.9715225E5,5.2708275E5,4.010505E5,2.0452175E5,8.95575E4,6.090375E5,6.70035E4,2.38108E5,9.57775E4,1.120465E5,7.3836E4,1.0760909E5,2.9205828E4,1.5982719E4,7.579E4,3.4094562E4,3.943278E4,2.5073748E4,4.887344E5,2.9217272E5,1.4047825E5,1.4398561E5,1.11097E5,2.8791812E4,8.888459E4,3.414625E4,2.757085E5,1.759239E5,4.952225E4,9.666275E4,6.477975E4,1.0430131E5,1.4462461E3,1.85976E5,7.53785E4,5.0677625E4,9.4487E4,5.0808E4,8.0811E4,0E0,4.666825E4,0E0,0E0,0E0,0E0,0E0,0E0,0E0,0E0,0E0,0E0,0E0,0E0,0E0,0E0,0E0,0E0,0E0,0E0,0E0,0E0,0E0,0E0,0E0,0E0,0E0,0E0,0E0,0E0,0E0,0E0,0E0,0E0,0E0,0E0,0E0,0E0,0E0,0E0,0E0,0E0,0E0,0E0,0E0,0E0,0E0,0E0,0E0,0E0,0E0,0E0,0E0,0E0,0E0,0E0,0E0,0E0,0E0,0E0,0E0,0E0,0E0],"parents":[2147483647,0,0,1,1,2,2,3,3,4,4,5,5,6,6,7,7,8,8,9,9,10,10,11,11,12,12,13,13,14,14,15,15,16,16,17,17,18,18,19,19,20,20,21,21,22,22,23,23,24,24,25,25,26,26,27,27,28,28,29,29,30,30,31,31,32,32,33,33,34,34,35,35,36,36,37,37,38,38,39,39,40,40,41,41,42,42,43,43,44,44,45,45,46,46,47,47,48,48,49,49,50,50,51,51,52,52,53,53,54,54,55,55,56,56,57,57,58,58,59,59,61,61],"right_children":[2,4,6,8,10,12,14,16,18,20,22,24,26,28,30,32,34,36,38,40,42,44,46,48,50,52,54,56,58,60,62,64,66,68,70,72,74,76,78,80,82,84,86,88,90,92,94,96,98,100,102,104,106,108,110,112,114,116,118,120,-1,122,-1,-1,-1,-1,-1,-1,-1,-1,-1,-1,-1,-1,-1,-1,-1,-1,-1,-1,-1,-1,-1,-1,-1,-1,-1,-1,-1,-1,-1,-1,-1,-1,-1,-1,-1,-1,-1,-1,-1,-1,-1,-1,-1,-1,-1,-1,-1,-1,-1,-1,-1,-1,-1,-1,-1,-1,-1,-1,-1,-1,-1],"split_conditions":[1.8E3,1E3,1.08E2,7E2,1.14E2,2.9E3,6.3E3,3.9E1,8.6E1,1.3E3,3E0,8.4E1,4.1E3,3.1E3,1.0206E3,1.28E2,1.05E2,1.0226E3,1.8E1,3.3E1,1.0168E3,6E0,4.8E1,1.33E2,1.33E1,1.15E2,5.712E0,3.7E1,1.4E2,7E0,1.7E1,2.51328E1,2.3E0,4.78349E1,1.4E0,6E0,3.5E1,8E2,6.6E1,1.1E1,8.5E1,4.5E1,8.4E1,1.16E2,7.5E1,1.8E1,1.32E2,2E1,2.58678E1,2E3,1E1,3.7E1,-2.4E0,7.1E3,3E1,2.399E3,1.0034E3,4.9E3,1.97E1,7.2E1,1.7839043E1,1.025E3,-4.960893E0,-5.594661E0,-1.6525122E0,8.791255E0,-3.7914522E0,2.9454098E0,9.834773E0,1.0835508E1,2.6131353E1,-3.9763868E0,-2.6363235E0,-4.854676E0,1.2383231E0,-3.2306638E0,-1.713844E0,-6.163016E-2,9.154496E0,-5.84258E-1,-4.0172014E0,2.0711532E0,1.2596954E1,1.7627966E0,3.6065605E0,-8.2383555E-1,3.3467312E0,2.7920563E0,4.0640865E1,1.192172E1,2.1075445E1,2.4337737E-1,5.0077143E0,1.1253402E1,1.975104E1,2.2091956E0,4.921749E0,-4.678456E0,3.71578E1,2.9023693E0,5.7366447E0,7.416782E0,1.272254E1,3.973541E-1,7.5627513E0,3.1983301E1,1.0721273E1,-5.5027575E0,-2.9054182E0,1.2494052E1,2.0358892E1,7.933558E0,1.1023901E1,5.3118696E0,1.354539E1,1.30275755E1,1.7290083E1,1.9126692E1,4.265985E0,3.6084194E1,1.2783286E1,2.6673023E1,1.7849447E1],"split_indices":[3,3,2,3,2,3,3,1,4,3,5,2,3,3,6,4,1,6,1,1,6,4,1,1,5,1,1,4,2,4,4,1,5,2,9,1,1,3,2,12,1,4,2,2,1,1,2,4,2,3,12,2,5,3,4,3,6,3,5,1,0,6,0,0,0,0,0,0,0,0,0,0,0,0,0,0,0,0,0,0,0,0,0,0,0,0,0,0,0,0,0,0,0,0,0,0,0,0,0,0,0,0,0,0,0,0,0,0,0,0,0,0,0,0,0,0,0,0,0,0,0,0,0],"split_type":[0,0,0,0,0,0,0,0,0,0,0,0,0,0,0,0,0,0,0,0,0,0,0,0,0,0,0,0,0,0,0,0,0,0,0,0,0,0,0,0,0,0,0,0,0,0,0,0,0,0,0,0,0,0,0,0,0,0,0,0,0,0,0,0,0,0,0,0,0,0,0,0,0,0,0,0,0,0,0,0,0,0,0,0,0,0,0,0,0,0,0,0,0,0,0,0,0,0,0,0,0,0,0,0,0,0,0,0,0,0,0,0,0,0,0,0,0,0,0,0,0,0,0],"sum_hessian":[1.9199E4,1.5047E4,4.152E3,8.507E3,6.54E3,3.046E3,1.106E3,5.407E3,3.1E3,6.316E3,2.24E2,2.122E3,9.24E2,9.81E2,1.25E2,5.372E3,3.5E1,2.177E3,9.23E2,3.848E3,2.468E3,3.6E1,1.88E2,1.518E3,6.04E2,6.49E2,2.75E2,4.69E2,5.12E2,5.9E1,6.6E1,4.974E3,3.98E2,2.7E1,8E0,1.711E3,4.66E2,7.37E2,1.86E2,3.349E3,4.99E2,1.682E3,7.86E2,1.1E1,2.5E1,1.56E2,3.2E1,1.513E3,5E0,4.46E2,1.58E2,6.22E2,2.7E1,1.9E1,2.56E2,3.63E2,1.06E2,3.41E2,1.71E2,5.2E1,7E0,6.5E1,1E0,4.925E3,4.9E1,6E0,3.92E2,1.7E1,1E1,7E0,1E0,8.39E2,8.72E2,4.57E2,9E0,2.78E2,4.59E2,1.84E2,2E0,2.865E3,4.84E2,4.72E2,2.7E1,7.45E2,9.37E2,6.93E2,9.3E1,1E0,1E1,1.3E1,1.2E1,8.1E1,7.5E1,1.4E1,1.8E1,8.17E2,6.96E2,1E0,4E0,7.8E1,3.68E2,9.9E1,5.9E1,1.3E1,6.09E2,2E0,2.5E1,1.1E1,8E0,2.18E2,3.8E1,1.52E2,2.11E2,1E1,9.6E1,2.59E2,8.2E1,1.68E2,3E0,4.9E1,3E0,4.7E1,1.8E1],"tree_param":{"num_deleted":"0","num_feature":"13","num_nodes":"123","size_leaf_vector":"1"}},{"base_weights":[-1.3614707E-1,-1.4541899E1,8.653947E1,-3.1916218E1,4.8643246E0,6.523494E1,1.5203154E2,-3.9097225E1,1.8614571E0,-2.4534983E1,8.451482E0,9.014083E1,3.834606E1,2.1738344E2,1.15391365E2,-2.2591822E1,-4.9108185E1,1.2952138E1,-1.291207E1,-3.558925E1,2.4418614E0,4.3648365E1,2.979939E0,5.703764E1,1.0181135E2,2.356495E1,7.608292E1,1.3044684E2,2.474203E2,1.2729956E2,5.7622505E1,-2.8143393E1,-4.5875344E0,-5.4825542E1,-4.339951E1,2.225654E1,-1.3706492E1,-2.1551752E1,8.595457E0,-2.3974854E1,-4.2636635E1,1.0410776E1,-1.3525389E1,2.3161095E1,7.7786194E1,-7.6778656E-1,3.2170704E1,7.526817E1,3.531008E1,1.5549901E2,8.929006E1,5.44704E1,5.8725905E0,5.0152256E1,1.14762634E2,1.0324661E2,1.5141037E2,2.1808171E2,2.9751324E2,1.17587036E2,1.6250983E2,2.890016E1,1.00700096E2,-2.0519056E0,-3.8561075E0,1.7431204E0,-2.0111134E0,-4.4855933E0,-5.5552397E0,-3.0144444E0,-4.959554E0,2.6681774E0,-1.357735E0,-2.4897027E0,6.008372E-1,-2.6439114E0,3.2866818E-1,3.6778169E0,1.7238517E-1,2.6041384E0,-2.5202065E0,2.7569525E0,-4.3662653E0,1.3190468E1,7.3654616E-1,2.2126577E0,-1.8712324E0,5.6791534E0,1.6387742E0,5.5622473E0,1.0746036E1,-9.6775454E-1,1.4985029E0,2.7954314E0,8.763119E0,6.2150297E0,1.002853E1,1.3909315E0,6.2005715E0,1.3971849E1,2.0883032E1,6.232281E0,1.0219779E1,3.9533596E0,8.118854E0,-1.439463E0,1.7296013E0,6.07929E0,1.7311451E0,9.752078E0,1.4224193E1,1.2960616E1,5.6779065E0,1.0999364E1,1.690016E1,2.7131998E1,1.9269852E1,3.1075224E1,1.4720822E1,1.4460729E1,9.872787E0,9.457352E0,1.715066E1,1.0703439E0,9.515769E0,1.0847325E1,4.013965E0],"categories":[0,1,3,4,5,6,7,13,14,1,3,4,5,6,7,0,1,3,4,5,6,7,14,0,1,2,3,4,5,6,8,9,10,11,12,13,14,15,1,2,3,4,5,6,7,8,9,10,12,13,14,15,0,1,2,3,5,6,7,8,9,10,11,12,13,14,15],"categories_nodes":[7,17,19,41,42,43],"categories_segments":[0,9,15,23,38,52],"categories_sizes":[9,6,8,15,14,15],"default_left":[0,0,0,0,0,0,0,1,0,0,0,0,0,0,0,0,0,1,0,1,0,0,0,0,0,0,0,0,0,0,0,0,0,0,0,0,0,0,0,0,0,1,1,1,0,0,0,0,0,0,0,0,0,0,0,0,0,0,0,0,0,0,0,0,0,0,0,0,0,0,0,0,0,0,0,0,0,0,0,0,0,0,0,0,0,0,0,0,0,0,0,0,0,0,0,0,0,0,0,0,0,0,0,0,0,0,0,0,0,0,0,0,0,0,0,0,0,0,0,0,0,0,0,0,0,0,0],"id":3,"left_children":[1,3,5,7,9,11,13,15,17,19,21,23,25,27,29,31,33,35,37,39,41,43,45,47,49,51,53,55,57,59,61,63,65,67,69,71,73,75,77,79,81,83,85,87,89,91,93,95,97,99,101,103,105,107,109,111,113,115,117,119,121,123,125,-1,-1,-1,-1,-1,-1,-1,-1,-1,-1,-1,-1,-1,-1,-1,-1,-1,-1,-1,-1,-1,-1,-1,-1,-1,-1,-1,-1,-1,-1,-1,-1,-1,-1,-1,-1,-1,-1,-1,-1,-1,-1,-1,-1,-1,-1,-1,-1,-1,-1,-1,-1,-1,-1,-1,-1,-1,-1,-1,-1,-1,-1,-1,-1],"loss_changes":[2.4084782E7,5.576946E6,3.8257E6,2.116873E6,8.2427125E5,1.386822E6,1.588812E6,1.188087E6,2.5101927E5,2.5356472E5,1.3411982E6,4.10272E5,5.5599975E5,5.97049E5,2.912235E5,2.716405E5,1.43809E5,2.1734234E5,1.222678E5,4.8334E4,3.1696742E4,6.535279E5,6.5959106E5,1.09439875E5,5.205445E5,3.933692E5,2.7608488E5,2.0861125E4,1.96717E5,1.03662E5,9.112378E4,1.6426E5,2.1979262E5,1.36965E4,1.829665E5,1.0327634E5,5.023029E4,5.7020875E4,3.653842E4,1.47738125E4,2.8144062E4,6.0446344E4,1.5762765E4,1.3278256E5,2.2487175E5,7.5019575E5,1.5796669E5,4.3977562E4,7.3978766E4,9.622025E4,2.188425E5,1.0135025E5,1.0651711E5,5.8353594E4,3.919325E4,3.0611844E4,6.1823125E3,1.044745E5,7.96175E4,1.3095325E5,2.9620625E4,5.564796E4,9.7683125E3,0E0,0E0,0E0,0E0,0E0,0E0,0E0,0E0,0E0,0E0,0E0,0E0,0E0,0E0,0E0,0E0,0E0,0E0,0E0,0E0,0E0,0E0,0E0,0E0,0E0,0E0,0E0,0E0,0E0,0E0,0E0,0E0,0E0,0E0,0E0,0E0,0E0,0E0,0E0,0E0,0E0,0E0,0E0,0E0,0E0,0E0,0E0,0E0,0E0,0E0,0E0,0E0,0E0,0E0,0E0,0E0,0E0,0E0,0E0,0E0,0E0,0E0,0E0,0E0],"parents":[2147483647,0,0,1,1,2,2,3,3,4,4,5,5,6,6,7,7,8,8,9,9,10,10,11,11,12,12,13,13,14,14,15,15,16,16,17,17,18,18,19,19,20,20,21,21,22,22,23,23,24,24,25,25,26,26,27,27,28,28,29,29,30,30,31,31,32,32,33,33,34,34,35,35,36,36,37,37,38,38,39,39,40,40,41,41,42,42,43,43,44,44,45,45,46,46,47,47,48,48,49,49,50,50,51,51,52,52,53,53,54,54,55,55,56,56,57,57,58,58,59,59,60,60,61,61,62,62],"right_children":[2,4,6,8,10,12,14,16,18,20,22,24,26,28,30,32,34,36,38,40,42,44,46,48,50,52,54,56,58,60,62,64,66,68,70,72,74,76,78,80,82,84,86,88,90,92,94,96,98,100,102,104,106,108,110,112,114,116,118,120,122,124,126,-1,-1,-1,-1,-1,-1,-1,-1,-1,-1,-1,-1,-1,-1,-1,-1,-1,-1,-1,-1,-1,-1,-1,-1,-1,-1,-1,-1,-1,-1,-1,-1,-1,-1,-1,-1,-1,-1,-1,-1,-1,-1,-1,-1,-1,-1,-1,-1,-1,-1,-1,-1,-1,-1,-1,-1,-1,-1,-1,-1,-1,-1,-1,-1],"split_conditions":[9E1,4.41395E1,1.27E2,1.8E1,-1.45E1,8.5E0,2.3E0,1E-45,8E0,6.8E1,3E0,-8.8E0,1E1,-7.4E0,1.72E1,1.56E2,-9.1E0,1E-45,2.29E1,1E-45,3E0,-7E0,9.7E1,-1.7E0,-1.5E0,5E0,1.08E1,1.0236E3,1.51E2,1.18E1,3.3E1,6E0,6E0,1.0123E3,6E0,1E-1,3.6E1,9E0,9.981E2,2E0,2E0,1E-45,1E-45,1E-45,2.4E1,7E1,1E1,1.08E2,1E1,-4.2E0,1E2,2.8E1,1.38E1,1.9E1,1.37E1,3E0,1.32E2,-2.4E0,1.4E0,4E0,1.0055E3,1E1,1.0114E3,-2.0519056E0,-3.8561075E0,1.7431204E0,-2.0111134E0,-4.4855933E0,-5.5552397E0,-3.0144444E0,-4.959554E0,2.6681774E0,-1.357735E0,-2.4897027E0,6.008372E-1,-2.6439114E0,3.2866818E-1,3.6778169E0,1.7238517E-1,2.6041384E0,-2.5202065E0,2.7569525E0,-4.3662653E0,1.3190468E1,7.3654616E-1,2.2126577E0,-1.8712324E0,5.6791534E0,1.6387742E0,5.5622473E0,1.0746036E1,-9.6775454E-1,1.4985029E0,2.7954314E0,8.763119E0,6.2150297E0,1.002853E1,1.3909315E0,6.2005715E0,1.3971849E1,2.0883032E1,6.232281E0,1.0219779E1,3.9533596E0,8.118854E0,-1.439463E0,1.7296013E0,6.07929E0,1.7311451E0,9.752078E0,1.4224193E1,1.2960616E1,5.6779065E0,1.0999364E1,1.690016E1,2.7131998E1,1.9269852E1,3.1075224E1,1.4720822E1,1.4460729E1,9.872787E0,9.457352E0,1.715066E1,1.0703439E0,9.515769E0,1.0847325E1,4.013965E0],"split_indices":[2,2,2,7,7,5,5,10,12,2,12,7,12,7,5,4,7,10,7,10,12,7,4,5,5,12,7,6,2,7,4,12,12,6,12,8,2,12,6,4,4,10,10,10,4,2,12,2,4,7,2,4,7,11,7,12,2,5,5,12,6,12,6,0,0,0,0,0,0,0,0,0,0,0,0,0,0,0,0,0,0,0,0,0,0,0,0,0,0,0,0,0,0,0,0,0,0,0,0,0,0,0,0,0,0,0,0,0,0,0,0,0,0,0,0,0,0,0,0,0,0,0,0,0,0,0,0],"split_type":[0,0,0,0,0,0,0,1,0,0,0,0,0,0,0,0,0,1,0,1,0,0,0,0,0,0,0,0,0,0,0,0,0,0,0,0,0,0,0,0,0,1,1,1,0,0,0,0,0,0,0,0,0,0,0,0,0,0,0,0,0,0,0,0,0,0,0,0,0,0,0,0,0,0,0,0,0,0,0,0,0,0,0,0,0,0,0,0,0,0,0,0,0,0,0,0,0,0,0,0,0,0,0,0,0,0,0,0,0,0,0,0,0,0,0,0,0,0,0,0,0,0,0,0,0,0,0],"sum_hessian":[1.9287E4,1.6539E4,2.748E3,8.726E3,7.813E3,2.075E3,6.73E2,7.196E3,1.53E3,8.49E2,6.964E3,1.076E3,9.99E2,2.4E2,4.33E2,2.718E3,4.478E3,8.74E2,6.56E2,6.02E2,2.47E2,9.36E2,6.028E3,2.82E2,7.94E2,7.19E2,2.8E2,6.3E1,1.77E2,3.58E2,7.5E1,2.077E3,6.41E2,2.233E3,2.245E3,6.48E2,2.26E2,4.68E2,1.88E2,2.29E2,3.73E2,1.65E2,8.2E1,5.86E2,3.5E2,5.343E3,6.85E2,1.52E2,1.3E2,1.48E2,6.46E2,2.61E2,4.58E2,1.69E2,1.11E2,3E1,3.3E1,1.15E2,6.2E1,2.84E2,7.4E1,4.6E1,2.9E1,1.201E3,8.76E2,2.65E2,3.76E2,1.56E2,2.077E3,7.17E2,1.528E3,5.77E2,7.1E1,1.44E2,8.2E1,3.91E2,7.7E1,3.6E1,1.52E2,5E0,2.24E2,5E0,3.68E2,3E0,1.62E2,1E1,7.2E1,9.7E1,4.89E2,2.02E2,1.48E2,3.413E3,1.93E3,6.38E2,4.7E1,1.02E2,5E1,7.3E1,5.7E1,1.17E2,3.1E1,2.11E2,4.35E2,1.69E2,9.2E1,1.65E2,2.93E2,1.27E2,4.2E1,7.1E1,4E1,1.8E1,1.2E1,1.2E1,2.1E1,3.4E1,8.1E1,5.6E1,6E0,1.14E2,1.7E2,1E1,6.4E1,3.7E1,9E0,2.5E1,4E0],"tree_param":{"num_deleted":"0","num_feature":"13","num_nodes":"127","size_leaf_vector":"1"}},{"base_weights":[2.8696636E-2,-2.2720047E1,9.261902E1,-4.23551E1,3.6073442E0,6.7509575E1,1.5928642E2,-4.8670506E1,-3.1413383E1,-8.154292E0,1.828111E1,5.0669834E1,8.8313095E1,1.2554036E1,1.7137338E2,-5.1949387E1,-4.4442223E1,-4.5114483E1,-2.9106203E1,-8.417168E0,3.152719E1,-1.5640729E1,2.3317112E1,2.932725E0,5.448538E1,1.4640978E1,9.280584E1,-6.8081015E-1,1.7589727E1,1.483736E2,2.5946716E2,-5.2258892E1,-1.9113503E1,-4.4671486E1,1.0556395E1,-4.719419E1,-2.6909012E1,-3.387101E1,-2.4980192E1,-2.4261799E1,-4.839097E0,-2.4315498E1,-5.8670096E0,1.91531E1,4.209924E1,-1.4310187E1,4.0689873E1,4.3448414E1,6.2253468E1,-1.6331676E1,8.577573E1,7.8972305E1,1.0406142E2,-8.527034E0,3.1272552E1,1.3159329E2,1.7971114E2,2.910492E2,1.0497166E2,-5.525014E0,-5.0936437E0,-8.727174E0,-8.693988E-1,-4.7652125E0,-4.058535E0,5.39726E0,-2.1963236E0,-4.7754283E0,-7.64701E-1,-3.9617085E0,-1.6340512E0,-3.5725782E0,-2.879424E0,-2.7438176E0,-1.8647012E0,-3.4072475E0,-1.5610062E0,-8.6002123E-1,4.6737558E-1,-2.873543E0,1.9535176E0,-1.9795783E0,-1.6161071E-1,1.2457204E0,2.6929052E0,3.4234211E0,5.5329375E0,-2.5509675E0,6.999938E-1,7.0074067E0,1.3678818E0,3.6967728E0,5.6188116E0,5.7284527E0,7.7853203E0,-2.5709994E0,3.0290465E0,1.0243101E1,3.545283E0,7.4964714E0,1.2107885E1,1.2495753E1,9.9414215E0,-2.0792859E0,4.0138575E-1,1.927411E-1,1.4801065E1,-2.0201275E0,1.325502E1,2.1318094E1,1.6898615E1,2.5386448E1,3.5065193E1,1.5075587E0,2.2382805E1],"categories":[],"categories_nodes":[],"categories_segments":[],"categories_sizes":[],"default_left":[0,0,0,0,0,0,0,0,0,0,0,0,0,0,0,0,0,0,0,0,0,0,0,0,0,0,0,0,0,0,0,0,0,0,0,0,0,0,0,0,0,0,0,0,0,0,0,0,0,0,0,0,0,0,0,0,0,0,0,0,0,0,0,0,0,0,0,0,0,0,0,0,0,0,0,0,0,0,0,0,0,0,0,0,0,0,0,0,0,0,0,0,0,0,0,0,0,0,0,0,0,0,0,0,0,0,0,0,0,0,0,0,0,0,0],"id":4,"left_children":[1,3,5,7,9,11,13,15,17,19,21,23,25,27,29,31,33,35,37,39,-1,41,43,45,47,49,51,53,-1,55,57,59,61,63,65,67,69,71,73,75,77,79,81,83,85,87,89,91,93,95,97,99,101,103,105,107,109,111,113,-1,-1,-1,-1,-1,-1,-1,-1,-1,-1,-1,-1,-1,-1,-1,-1,-1,-1,-1,-1,-1,-1,-1,-1,-1,-1,-1,-1,-1,-1,-1,-1,-1,-1,-1,-1,-1,-1,-1,-1,-1,-1,-1,-1,-1,-1,-1,-1,-1,-1,-1,-1,-1,-1,-1,-1],"loss_changes":[4.050651E7,7.980667E6,6.338656E6,6.09534E5,1.1385365E6,9.61375E5,1.83702E6,7.5399E4,1.0107475E5,3.1399988E5,5.017518E5,2.777905E5,4.06421E5,1.7306556E5,1.90254E6,3.1025E4,3.1427E4,1.6335875E4,5.370925E4,2.0737977E5,0E0,3.2075547E4,1.99096E5,7.480121E4,1.1844E5,1.6003355E5,1.72555E5,1.9070154E4,0E0,3.77052E5,9.30667E5,9.531E3,2.1256709E4,2.78445E4,1.671608E4,8.8491875E3,6.0679023E3,1.107125E4,2.2698562E4,5.6676844E4,1.0691185E5,3.9518562E4,1.0625782E4,1.0869269E5,4.62835E4,1.9032902E4,2.7614598E4,4.6386875E4,5.96445E4,2.3077863E4,1.4807672E4,7.9515E4,4.94355E4,9.466746E3,5.1100164E4,7.5304E4,5.8382E4,2.72241E5,3.7059094E5,0E0,0E0,0E0,0E0,0E0,0E0,0E0,0E0,0E0,0E0,0E0,0E0,0E0,0E0,0E0,0E0,0E0,0E0,0E0,0E0,0E0,0E0,0E0,0E0,0E0,0E0,0E0,0E0,0E0,0E0,0E0,0E0,0E0,0E0,0E0,0E0,0E0,0E0,0E0,0E0,0E0,0E0,0E0,0E0,0E0,0E0,0E0,0E0,0E0,0E0,0E0,0E0,0E0,0E0,0E0,0E0],"parents":[2147483647,0,0,1,1,2,2,3,3,4,4,5,5,6,6,7,7,8,8,9,9,10,10,11,11,12,12,13,13,14,14,15,15,16,16,17,17,18,18,19,19,21,21,22,22,23,23,24,24,25,25,26,26,27,27,29,29,30,30,31,31,32,32,33,33,34,34,35,35,36,36,37,37,38,38,39,39,40,40,41,41,42,42,43,43,44,44,45,45,46,46,47,47,48,48,49,49,50,50,51,51,52,52,53,53,54,54,55,55,56,56,57,57,58,58],"right_children":[2,4,6,8,10,12,14,16,18,20,22,24,26,28,30,32,34,36,38,40,-1,42,44,46,48,50,52,54,-1,56,58,60,62,64,66,68,70,72,74,76,78,80,82,84,86,88,90,92,94,96,98,100,102,104,106,108,110,112,114,-1,-1,-1,-1,-1,-1,-1,-1,-1,-1,-1,-1,-1,-1,-1,-1,-1,-1,-1,-1,-1,-1,-1,-1,-1,-1,-1,-1,-1,-1,-1,-1,-1,-1,-1,-1,-1,-1,-1,-1,-1,-1,-1,-1,-1,-1,-1,-1,-1,-1,-1,-1,-1,-1,-1,-1],"split_conditions":[1.74E2,7.9E1,2.88E2,4.6E1,1.23E2,2.21E2,1E3,2.6E1,5E2,1.33E2,9E2,1E3,1E3,5.2E1,4.44E2,3.7E1,6E1,1.23E2,6.1E1,8E2,3.152719E1,7E2,1.95E1,2.4E1,1.91E2,1.7E1,2.47E2,5.81E2,1.7589727E1,3.59E2,1.22E1,1.1E1,1.0154E3,5.6E0,3.2E1,1.8E1,1.0025E3,1.64E1,1.68E1,7.7112E0,1.77E1,2.3E1,3.8E1,1.47E2,1.53E2,1.8E0,7.9E0,1.21E1,1.42E1,1E0,1.41E1,2.16E1,3E0,-4.5E0,5E0,-1.75E1,3E0,5.81E2,5.1E0,-5.525014E0,-5.0936437E0,-8.727174E0,-8.693988E-1,-4.7652125E0,-4.058535E0,5.39726E0,-2.1963236E0,-4.7754283E0,-7.64701E-1,-3.9617085E0,-1.6340512E0,-3.5725782E0,-2.879424E0,-2.7438176E0,-1.8647012E0,-3.4072475E0,-1.5610062E0,-8.6002123E-1,4.6737558E-1,-2.873543E0,1.9535176E0,-1.9795783E0,-1.6161071E-1,1.2457204E0,2.6929052E0,3.4234211E0,5.5329375E0,-2.5509675E0,6.999938E-1,7.0074067E0,1.3678818E0,3.6967728E0,5.6188116E0,5.7284527E0,7.7853203E0,-2.5709994E0,3.0290465E0,1.0243101E1,3.545283E0,7.4964714E0,1.2107885E1,1.2495753E1,9.9414215E0,-2.0792859E0,4.0138575E-1,1.927411E-1,1.4801065E1,-2.0201275E0,1.325502E1,2.1318094E1,1.6898615E1,2.5386448E1,3.5065193E1,1.5075587E0,2.2382805E1],"split_indices":[0,0,0,0,0,0,3,0,3,1,3,3,3,1,0,1,1,4,0,3,0,3,7,1,0,1,0,0,0,0,5,0,6,7,0,1,6,7,7,1,7,1,4,0,0,7,5,7,7,7,5,7,12,7,12,7,12,0,7,0,0,0,0,0,0,0,0,0,0,0,0,0,0,0,0,0,0,0,0,0,0,0,0,0,0,0,0,0,0,0,0,0,0,0,0,0,0,0,0,0,0,0,0,0,0,0,0,0,0,0,0,0,0,0,0],"split_type":[0,0,0,0,0,0,0,0,0,0,0,0,0,0,0,0,0,0,0,0,0,0,0,0,0,0,0,0,0,0,0,0,0,0,0,0,0,0,0,0,0,0,0,0,0,0,0,0,0,0,0,0,0,0,0,0,0,0,0,0,0,0,0,0,0,0,0,0,0,0,0,0,0,0,0,0,0,0,0,0,0,0,0,0,0,0,0,0,0,0,0,0,0,0,0,0,0,0,0,0,0,0,0,0,0,0,0,0,0,0,0,0,0,0,0],"sum_hessian":[1.9229E4,1.5437E4,3.792E3,8.842E3,6.595E3,2.756E3,1.036E3,5.604E3,3.238E3,3.661E3,2.934E3,1.525E3,1.231E3,7.9E1,9.57E2,3.15E3,2.454E3,4.64E2,2.774E3,3.659E3,2E0,3.79E2,2.555E3,1.13E2,1.412E3,7.1E1,1.16E3,7.4E1,5E0,7.61E2,1.96E2,3.12E3,3E1,2.444E3,1E1,4.15E2,4.9E1,1.284E3,1.49E3,6.73E2,2.986E3,2E2,1.79E2,2.093E3,4.62E2,7.8E1,3.5E1,5.86E2,8.26E2,5E1,2.1E1,5.24E2,6.36E2,6E1,1.4E1,4.99E2,2.62E2,1.62E2,3.4E1,9.44E2,2.176E3,3E0,2.7E1,1.407E3,1.037E3,4E0,6E0,4.09E2,6E0,2.1E1,2.8E1,9.36E2,3.48E2,1.071E3,4.19E2,3.14E2,3.59E2,2.14E3,8.46E2,1.82E2,1.8E1,4.1E1,1.38E2,1.126E3,9.67E2,2.92E2,1.7E2,5.1E1,2.7E1,1.6E1,1.9E1,3.91E2,1.95E2,6.3E2,1.96E2,4.2E1,8E0,1.5E1,6E0,4.81E2,4.3E1,1.11E2,5.25E2,3E1,3E1,1.2E1,2E0,3E0,4.96E2,5.9E1,2.03E2,1.03E2,5.9E1,2E1,1.4E1],"tree_param":{"num_deleted":"0","num_feature":"13","num_nodes":"115","size_leaf_vector":"1"}},{"base_weights":[1.818903E-1,-2.2310707E1,7.722954E1,-3.814761E1,1.0987009E0,5.5247627E1,1.455612E2,-4.4317883E1,-2.9361769E1,-8.882615E0,1.2722933E1,4.051226E1,7.806872E1,1.5916286E1,1.5665738E2,-4.7244896E1,-4.1432674E1,-3.382212E1,-2.4598116E1,-1.4567616E1,-3.8101716E0,1.4526396E1,-1.1125392E1,-3.0915201E1,4.1864677E1,-1.4039685E1,8.108422E1,1.21109375E2,4.923197E0,1.302352E2,2.2565556E2,-4.7542194E1,-8.498088E0,-4.1489906E1,2.2916704E1,-4.5914326E1,-3.2850655E1,-2.3073225E1,-3.8433647E1,-1.3229431E1,-3.066146E1,-2.4859052E0,-2.1943825E1,1.1266507E1,2.2981083E1,-3.6766777E1,1.2042657E0,2.6818138E1,-3.4867558E1,3.379149E1,5.3309757E1,-2.325506E1,5.8805113E0,7.1406006E1,9.409664E1,-6.837626E0,1.6489798E2,8.0200516E1,-7.3264165E0,1.1018199E2,1.4323724E2,2.5577943E2,1.6557274E2,-4.7631874E0,-2.6183794E0,-7.2199264E0,1.5920985E0,-4.3323183E0,-3.8987198E0,5.535605E0,-2.0980992E0,-4.870585E0,-3.414826E0,-3.4798462E0,-3.0811458E0,-2.1392927E0,-2.734188E0,-4.5269046E0,-3.2129056E0,-1.6603731E0,-8.95825E-1,-4.159074E0,-1.8826666E0,4.8373467E-3,-1.4075118E0,-9.859094E-1,-3.6350687E0,1.319076E0,-1.7886348E-1,1.7585942E0,3.1003609E0,-2.4514039E-1,-3.9013615E0,-1.2805173E0,4.070452E-1,-1.5483547E0,5.5710754E0,-3.6509094E0,-4.640925E-1,2.6847942E0,3.9491894E0,5.437872E0,1.025244E0,1.4905179E0,-2.8182888E0,7.3118744E0,3.070403E0,1.1552817E1,8.906364E0,-1.4862674E0,4.6062356E-1,9.141056E-1,1.9422115E1,1.1446082E1,3.2573452E0,7.536158E0,-1.0973955E0,1.1146826E1,-7.723574E-1,1.9477013E1,1.3941976E1,2.2378216E1,3.149777E1,1.8570478E1,7.137227E0],"categories":[7,14,3,4,5,6,7,9,14,3,4,6,7,12,14,15,0,3,4,5,6,7,8,10,12,13,14,15,0,1,2,3,4,5,6,7,8,9,12,13,14,15,6,8,9,10,13],"categories_nodes":[19,42,45,57,58,62],"categories_segments":[0,2,9,16,28,42],"categories_sizes":[2,7,7,12,14,5],"default_left":[0,0,0,0,0,0,0,0,0,0,0,0,0,0,0,0,0,0,0,1,0,0,0,0,0,0,0,0,0,0,0,0,0,0,0,0,0,0,0,0,0,0,1,0,0,1,0,0,0,0,0,0,0,0,0,0,0,1,1,0,0,0,1,0,0,0,0,0,0,0,0,0,0,0,0,0,0,0,0,0,0,0,0,0,0,0,0,0,0,0,0,0,0,0,0,0,0,0,0,0,0,0,0,0,0,0,0,0,0,0,0,0,0,0,0,0,0,0,0,0,0,0,0,0,0],"id":5,"left_children":[1,3,5,7,9,11,13,15,17,19,21,23,25,27,29,31,33,35,37,39,41,43,45,47,49,51,53,55,57,59,61,63,65,67,69,71,73,75,77,79,81,83,85,87,89,91,93,95,97,99,101,103,-1,105,107,109,111,113,115,117,119,121,123,-1,-1,-1,-1,-1,-1,-1,-1,-1,-1,-1,-1,-1,-1,-1,-1,-1,-1,-1,-1,-1,-1,-1,-1,-1,-1,-1,-1,-1,-1,-1,-1,-1,-1,-1,-1,-1,-1,-1,-1,-1,-1,-1,-1,-1,-1,-1,-1,-1,-1,-1,-1,-1,-1,-1,-1,-1,-1,-1,-1,-1,-1],"loss_changes":[3.3545708E7,5.554728E6,6.56197E6,4.83183E5,7.0171694E5,1.110251E6,1.528136E6,4.2361E4,7.757175E4,9.377961E4,1.20330375E5,1.958465E5,3.616615E5,9.76975E4,1.757234E6,2.95235E4,1.07145E4,2.08465E4,3.6835875E4,3.2631438E4,4.1273184E4,7.134544E4,6.2325734E4,9.606023E3,1.8087025E5,2.9561787E4,1.51584E5,4.5948484E4,7.251279E4,1.69598E5,4.4633E5,3.6905E3,3.3815484E4,1.04655E4,5.4334624E3,2.90225E3,5.9385E3,1.09845E4,6.130172E3,2.0287828E4,1.43504375E4,4.7140008E4,2.0011664E4,4.7176453E4,3.0704875E4,4.838828E3,5.4327124E3,4.5292197E3,1.6168203E3,4.4932875E4,3.7E4,7.5658613E3,0E0,4.829625E4,4.7203E4,3.4397363E2,2.5628344E4,1.4220508E4,2.1336338E4,4.393175E4,5.7043E4,2.66678E5,1.6311575E5,0E0,0E0,0E0,0E0,0E0,0E0,0E0,0E0,0E0,0E0,0E0,0E0,0E0,0E0,0E0,0E0,0E0,0E0,0E0,0E0,0E0,0E0,0E0,0E0,0E0,0E0,0E0,0E0,0E0,0E0,0E0,0E0,0E0,0E0,0E0,0E0,0E0,0E0,0E0,0E0,0E0,0E0,0E0,0E0,0E0,0E0,0E0,0E0,0E0,0E0,0E0,0E0,0E0,0E0,0E0,0E0,0E0,0E0,0E0,0E0,0E0,0E0],"parents":[2147483647,0,0,1,1,2,2,3,3,4,4,5,5,6,6,7,7,8,8,9,9,10,10,11,11,12,12,13,13,14,14,15,15,16,16,17,17,18,18,19,19,20,20,21,21,22,22,23,23,24,24,25,25,26,26,27,27,28,28,29,29,30,30,31,31,32,32,33,33,34,34,35,35,36,36,37,37,38,38,39,39,40,40,41,41,42,42,43,43,44,44,45,45,46,46,47,47,48,48,49,49,50,50,51,51,53,53,54,54,55,55,56,56,57,57,58,58,59,59,60,60,61,61,62,62],"right_children":[2,4,6,8,10,12,14,16,18,20,22,24,26,28,30,32,34,36,38,40,42,44,46,48,50,52,54,56,58,60,62,64,66,68,70,72,74,76,78,80,82,84,86,88,90,92,94,96,98,100,102,104,-1,106,108,110,112,114,116,118,120,122,124,-1,-1,-1,-1,-1,-1,-1,-1,-1,-1,-1,-1,-1,-1,-1,-1,-1,-1,-1,-1,-1,-1,-1,-1,-1,-1,-1,-1,-1,-1,-1,-1,-1,-1,-1,-1,-1,-1,-1,-1,-1,-1,-1,-1,-1,-1,-1,-1,-1,-1,-1,-1,-1,-1,-1,-1,-1,-1,-1,-1,-1,-1],"split_conditions":[1.62E2,7.9E1,2.88E2,4.2E1,1.18E2,2.18E2,4.41395E1,2.2E1,6E1,9.7E1,3.6E0,1.9E1,2.58678E1,6E0,4.12E2,8.6E1,1.17E2,1.4E1,3.6E0,1E-45,3.7E0,1.48E2,2E1,1.6E0,1.91E2,1.19E2,2.54E2,1.0046E3,1.6E0,3.21E2,1.8333334E0,1.75E2,7E0,1.7E1,2.8E1,2.46E1,1.8E1,1.8E1,1.6E1,2.05E1,2.8E1,7.7E1,1E-45,8.7E1,1.89E1,1E-45,1E1,1.8E2,1.23E2,6E0,4.2E0,6E0,5.8805113E0,3.4E0,3E0,3.33E2,-4.9E0,1E-45,1E-45,2.53E1,4.78349E1,5.81E2,1E-45,-4.7631874E0,-2.6183794E0,-7.2199264E0,1.5920985E0,-4.3323183E0,-3.8987198E0,5.535605E0,-2.0980992E0,-4.870585E0,-3.414826E0,-3.4798462E0,-3.0811458E0,-2.1392927E0,-2.734188E0,-4.5269046E0,-3.2129056E0,-1.6603731E0,-8.95825E-1,-4.159074E0,-1.8826666E0,4.8373467E-3,-1.4075118E0,-9.859094E-1,-3.6350687E0,1.319076E0,-1.7886348E-1,1.7585942E0,3.1003609E0,-2.4514039E-1,-3.9013615E0,-1.2805173E0,4.070452E-1,-1.5483547E0,5.5710754E0,-3.6509094E0,-4.640925E-1,2.6847942E0,3.9491894E0,5.437872E0,1.025244E0,1.4905179E0,-2.8182888E0,7.3118744E0,3.070403E0,1.1552817E1,8.906364E0,-1.4862674E0,4.6062356E-1,9.141056E-1,1.9422115E1,1.1446082E1,3.2573452E0,7.536158E0,-1.0973955E0,1.1146826E1,-7.723574E-1,1.9477013E1,1.3941976E1,2.2378216E1,3.149777E1,1.8570478E1,7.137227E0],"split_indices":[0,0,0,0,0,0,2,0,0,0,9,2,2,2,0,2,2,2,9,10,9,0,2,9,0,4,0,6,9,0,5,4,0,5,0,5,5,11,2,5,2,2,10,2,5,10,5,0,4,12,9,2,0,9,12,0,5,10,10,5,2,0,10,0,0,0,0,0,0,0,0,0,0,0,0,0,0,0,0,0,0,0,0,0,0,0,0,0,0,0,0,0,0,0,0,0,0,0,0,0,0,0,0,0,0,0,0,0,0,0,0,0,0,0,0,0,0,0,0,0,0,0,0,0,0],"split_type":[0,0,0,0,0,0,0,0,0,0,0,0,0,0,0,0,0,0,0,1,0,0,0,0,0,0,0,0,0,0,0,0,0,0,0,0,0,0,0,0,0,0,1,0,0,1,0,0,0,0,0,0,0,0,0,0,0,1,1,0,0,0,1,0,0,0,0,0,0,0,0,0,0,0,0,0,0,0,0,0,0,0,0,0,0,0,0,0,0,0,0,0,0,0,0,0,0,0,0,0,0,0,0,0,0,0,0,0,0,0,0,0,0,0,0,0,0,0,0,0,0,0,0,0,0],"sum_hessian":[1.9355E4,1.4982E4,4.373E3,8.936E3,6.046E3,3.31E3,1.063E3,5.247E3,3.689E3,3.253E3,2.793E3,2.013E3,1.297E3,8.4E1,9.79E2,2.597E3,2.65E3,1.902E3,1.787E3,1.533E3,1.72E3,2.597E3,1.96E2,3.7E1,1.976E3,4.1E1,1.256E3,7E0,7.7E1,7.1E2,2.69E2,2.577E3,2E1,2.648E3,2E0,1.38E2,1.764E3,1.612E3,1.75E2,1.417E3,1.16E2,1.604E3,1.16E2,1.876E3,7.21E2,6.3E1,1.33E2,2E0,3.5E1,1.161E3,8.15E2,3.7E1,4E0,7.24E2,5.32E2,2E0,5E0,1E1,6.7E1,2.83E2,4.27E2,1.77E2,9.2E1,2.565E3,1.2E1,5E0,1.5E1,1.519E3,1.129E3,1E0,1E0,1.09E2,2.9E1,8.94E2,8.7E2,1.161E3,4.51E2,8.1E1,9.4E1,7.9E2,6.27E2,5.9E1,5.7E1,1.317E3,2.87E2,6.4E1,5.2E1,1.635E3,2.41E2,4.33E2,2.88E2,4E0,5.9E1,2.2E1,1.11E2,1E0,1E0,3.3E1,2E0,5.26E2,6.35E2,7.95E2,2E1,4E0,3.3E1,6.94E2,3E1,9.7E1,4.35E2,1E0,1E0,1E0,4E0,5E0,5E0,2E0,6.5E1,2.8E2,3E0,2.6E1,4.01E2,1.18E2,5.9E1,7.5E1,1.7E1],"tree_param":{"num_deleted":"0","num_feature":"13","num_nodes":"125","size_leaf_vector":"1"}},{"base_weights":[2.9982248E-1,-1.7394596E1,5.092308E1,-3.0770275E1,2.3681793E0,3.701839E1,1.0765903E2,-3.613852E1,-2.145051E1,1.1507638E0,1.1727302E2,2.8592373E1,6.3769512E1,9.3709755E1,1.7657378E2,-3.6704536E1,5.641122E1,-2.6152245E1,-1.2979895E1,-2.0663517E1,6.7601714E0,1.4557146E2,4.8546318E1,2.2963467E1,4.5493397E1,4.777376E1,7.3228E1,5.824387E1,1.0450676E2,1.9389534E2,5.3133993E0,-3.815039E1,-2.5949705E1,3.561799E1,1.2855495E2,-3.3235252E1,-2.3309616E1,-1.701455E1,-1.5685394E0,-3.6847244E1,-9.727783E0,5.8244114E0,1.2615719E2,1.5878844E2,7.9466043E0,2.10131E1,1.2143672E1,6.9531E0,3.2383705E1,4.3648254E1,1.4759279E2,3.2006298E1,6.4172844E1,5.261965E1,9.031369E1,4.7379066E1,1.0102811E2,1.0965493E2,2.6859577E1,1.0502341E2,2.1197441E2,7.4556984E1,-3.2938866E1,-3.574965E0,-4.1846685E0,-3.753783E0,-1.3679775E0,5.9454417E0,9.23742E-1,1.5709663E1,3.813381E0,-3.4092076E0,5.686381E-2,-5.22194E-1,-2.635214E0,-2.3090074E0,-1.3312047E0,2.151652E0,-4.215985E-1,-4.4052644E0,-3.0416746E0,-1.544262E0,5.373215E-1,1.8907799E-1,2.4888484E0,2.8731892E1,5.931972E0,1.8423197E1,1.0351565E1,-6.2150246E-1,3.5248666E0,-3.9707705E-1,1.8691927E0,6.239776E0,2.7261007E0,1.4520838E0,4.809646E0,2.8444914E1,7.809097E0,4.763067E0,2.2863593E0,7.55971E0,4.002094E0,5.5834565E0,9.2248E-2,1.23541975E1,8.23241E0,2.5136783E0,6.5879846E0,1.0644167E1,2.3893788E-1,9.5502405E0,1.3452356E1,-4.2310033E0,5.801477E0,4.477777E0,1.1068837E1,2.3324343E1,1.827423E1,-4.318012E0,1.0674043E1,-6.3333244E0,-1.914753E0],"categories":[1,2,3,5,6,7,8,9,11,13,14,15,2,3,4,5,6,8,9,11,12,13,14,15,0,1,9,13,15],"categories_nodes":[33,38,52],"categories_segments":[0,12,24],"categories_sizes":[12,12,5],"default_left":[0,0,0,0,0,0,0,0,0,0,0,0,0,0,0,0,0,0,0,0,0,0,0,0,0,0,0,0,0,0,0,0,0,1,0,0,0,0,1,0,0,0,0,0,0,0,0,0,0,0,0,0,1,0,0,0,0,0,0,0,0,0,0,0,0,0,0,0,0,0,0,0,0,0,0,0,0,0,0,0,0,0,0,0,0,0,0,0,0,0,0,0,0,0,0,0,0,0,0,0,0,0,0,0,0,0,0,0,0,0,0,0,0,0,0,0,0,0,0,0,0,0,0],"id":6,"left_children":[1,3,5,7,9,11,13,15,17,19,21,23,25,27,29,31,33,35,37,39,41,43,45,47,49,51,53,55,57,59,61,63,65,67,69,71,73,75,77,79,81,83,85,87,-1,89,-1,91,93,95,97,99,101,103,105,107,109,111,113,115,117,119,121,-1,-1,-1,-1,-1,-1,-1,-1,-1,-1,-1,-1,-1,-1,-1,-1,-1,-1,-1,-1,-1,-1,-1,-1,-1,-1,-1,-1,-1,-1,-1,-1,-1,-1,-1,-1,-1,-1,-1,-1,-1,-1,-1,-1,-1,-1,-1,-1,-1,-1,-1,-1,-1,-1,-1,-1,-1,-1,-1,-1],"loss_changes":[1.714015E7,3.7481575E6,3.905782E6,4.22285E5,8.005779E5,8.957405E5,9.20731E5,2.83062E5,1.22844125E5,6.933385E5,1.0962456E5,2.8721225E5,1.406865E5,3.05232E5,4.82509E5,8.19225E4,4.4924477E4,3.92525E4,5.0894516E4,2.0476247E5,5.0281872E5,2.4077625E4,3.5579484E4,3.4289375E5,1.35979E5,9.025631E4,2.0545575E5,8.4463125E4,2.456935E5,2.15532E5,4.4835402E4,4.01935E4,8.977428E4,1.6428895E4,1.2074719E4,1.6442062E4,7.8118125E4,1.8070734E4,1.7814479E4,2.0298188E4,5.9888703E4,3.353878E5,3.599638E5,2.87445E4,0E0,6.033186E3,0E0,1.08303234E5,2.1847325E5,9.569775E4,1.0144003E5,2.5195203E4,4.4984125E4,4.5321562E4,7.611075E4,6.2126438E4,2.0037156E4,1.92341E5,8.8654305E4,4.2584062E3,3.3229E4,2.734418E4,3.398295E3,0E0,0E0,0E0,0E0,0E0,0E0,0E0,0E0,0E0,0E0,0E0,0E0,0E0,0E0,0E0,0E0,0E0,0E0,0E0,0E0,0E0,0E0,0E0,0E0,0E0,0E0,0E0,0E0,0E0,0E0,0E0,0E0,0E0,0E0,0E0,0E0,0E0,0E0,0E0,0E0,0E0,0E0,0E0,0E0,0E0,0E0,0E0,0E0,0E0,0E0,0E0,0E0,0E0,0E0,0E0,0E0,0E0,0E0,0E0,0E0],"parents":[2147483647,0,0,1,1,2,2,3,3,4,4,5,5,6,6,7,7,8,8,9,9,10,10,11,11,12,12,13,13,14,14,15,15,16,16,17,17,18,18,19,19,20,20,21,21,22,22,23,23,24,24,25,25,26,26,27,27,28,28,29,29,30,30,31,31,32,32,33,33,34,34,35,35,36,36,37,37,38,38,39,39,40,40,41,41,42,42,43,43,45,45,47,47,48,48,49,49,50,50,51,51,52,52,53,53,54,54,55,55,56,56,57,57,58,58,59,59,60,60,61,61,62,62],"right_children":[2,4,6,8,10,12,14,16,18,20,22,24,26,28,30,32,34,36,38,40,42,44,46,48,50,52,54,56,58,60,62,64,66,68,70,72,74,76,78,80,82,84,86,88,-1,90,-1,92,94,96,98,100,102,104,106,108,110,112,114,116,118,120,122,-1,-1,-1,-1,-1,-1,-1,-1,-1,-1,-1,-1,-1,-1,-1,-1,-1,-1,-1,-1,-1,-1,-1,-1,-1,-1,-1,-1,-1,-1,-1,-1,-1,-1,-1,-1,-1,-1,-1,-1,-1,-1,-1,-1,-1,-1,-1,-1,-1,-1,-1,-1,-1,-1,-1,-1,-1,-1,-1,-1],"split_conditions":[1.6E3,1E3,3.6E3,7E2,8.5E1,9.9E1,6.3E3,3.9E1,7.5E1,-6.5E0,7.1E0,2.6E3,2.299E3,-9E0,4E0,1.1424E1,1.15E2,-5.7E0,1.5E1,1.8E1,1.36E2,1.0226E3,8.7E1,-4.3E0,1.33E2,1.1E1,-2E-1,1.05E2,1.64E1,-6.7E0,7E3,8E0,-1.03E1,1E-45,-3.4E0,3.5E1,5E0,8E2,1E-45,1.1E1,4.1E1,2.7E1,6E-1,3.9E0,7.9466043E0,-4.8E0,1.2143672E1,3.7E1,4E0,-1.2E1,-2.4E0,6E0,1E-45,6.9E1,4E0,4.299E3,2E1,4.8E3,4.78349E1,1.21E2,1.0213E3,9.4248E0,2.4E1,-3.574965E0,-4.1846685E0,-3.753783E0,-1.3679775E0,5.9454417E0,9.23742E-1,1.5709663E1,3.813381E0,-3.4092076E0,5.686381E-2,-5.22194E-1,-2.635214E0,-2.3090074E0,-1.3312047E0,2.151652E0,-4.215985E-1,-4.4052644E0,-3.0416746E0,-1.544262E0,5.373215E-1,1.8907799E-1,2.4888484E0,2.8731892E1,5.931972E0,1.8423197E1,1.0351565E1,-6.2150246E-1,3.5248666E0,-3.9707705E-1,1.8691927E0,6.239776E0,2.7261007E0,1.4520838E0,4.809646E0,2.8444914E1,7.809097E0,4.763067E0,2.2863593E0,7.55971E0,4.002094E0,5.5834565E0,9.2248E-2,1.23541975E1,8.23241E0,2.5136783E0,6.5879846E0,1.0644167E1,2.3893788E-1,9.5502405E0,1.3452356E1,-4.2310033E0,5.801477E0,4.477777E0,1.1068837E1,2.3324343E1,1.827423E1,-4.318012E0,1.0674043E1,-6.3333244E0,-1.914753E0],"split_indices":[3,3,3,3,1,2,3,1,4,7,5,3,3,7,5,1,1,7,1,1,2,6,2,7,1,4,7,1,5,7,3,12,7,10,5,1,12,3,10,1,1,1,5,5,0,7,0,1,12,7,5,11,10,4,12,3,4,3,2,2,6,1,4,0,0,0,0,0,0,0,0,0,0,0,0,0,0,0,0,0,0,0,0,0,0,0,0,0,0,0,0,0,0,0,0,0,0,0,0,0,0,0,0,0,0,0,0,0,0,0,0,0,0,0,0,0,0,0,0,0,0,0,0],"split_type":[0,0,0,0,0,0,0,0,0,0,0,0,0,0,0,0,0,0,0,0,0,0,0,0,0,0,0,0,0,0,0,0,0,1,0,0,0,0,1,0,0,0,0,0,0,0,0,0,0,0,0,0,1,0,0,0,0,0,0,0,0,0,0,0,0,0,0,0,0,0,0,0,0,0,0,0,0,0,0,0,0,0,0,0,0,0,0,0,0,0,0,0,0,0,0,0,0,0,0,0,0,0,0,0,0,0,0,0,0,0,0,0,0,0,0,0,0,0,0,0,0,0,0],"sum_hessian":[1.9133E4,1.4178E4,4.955E3,8.455E3,5.723E3,3.981E3,9.74E2,5.363E3,3.092E3,5.664E3,5.9E1,3.029E3,9.52E2,8.12E2,1.62E2,5.331E3,3.2E1,1.987E3,1.105E3,1.158E3,4.506E3,4.1E1,1.8E1,2.274E3,7.55E2,3.56E2,5.96E2,1.91E2,6.21E2,1.47E2,1.5E1,4.697E3,6.34E2,2.6E1,6E0,5.66E2,1.421E3,8.16E2,2.89E2,4.66E2,6.92E2,4.472E3,3.4E1,3.3E1,8E0,1.4E1,4E0,8.43E2,1.431E3,7.43E2,1.2E1,1.83E2,1.73E2,2.72E2,3.24E2,1.54E2,3.7E1,5.82E2,3.9E1,2.6E1,1.21E2,5E0,1E1,2.854E3,1.843E3,3.25E2,3.09E2,1.3E1,1.3E1,4E0,2E0,5.52E2,1.4E1,2.05E2,1.216E3,3.07E2,5.09E2,2.9E1,2.6E2,2.17E2,2.49E2,5.02E2,1.9E2,3.708E3,7.64E2,9E0,2.5E1,2.1E1,1.2E1,5E0,9E0,4.37E2,4.06E2,2.07E2,1.224E3,9.9E1,6.44E2,3E0,9E0,6.6E1,1.17E2,1.16E2,5.7E1,2.56E2,1.6E1,6E1,2.64E2,7.1E1,8.3E1,3.5E1,2E0,3.74E2,2.08E2,1.2E1,2.7E1,3E0,2.3E1,6.6E1,5.5E1,1E0,4E0,2E0,8E0],"tree_param":{"num_deleted":"0","num_feature":"13","num_nodes":"123","size_leaf_vector":"1"}},{"base_weights":[4.2381814E-1,-1.6731377E1,7.100273E1,-3.099008E1,4.091249E0,5.4055805E1,1.2839732E2,-3.6082767E1,-2.2301542E1,-5.298678E0,1.4735808E1,4.0265747E1,7.315238E1,8.986921E0,1.3999094E2,-3.8913914E1,-3.3338215E1,-3.2703403E1,-2.0716995E1,-9.362735E0,4.1182795E0,-1.1106688E1,1.8476257E1,3.8549018E0,4.344571E1,-1.703596E1,7.5442276E1,9.765327E1,1.18592866E-1,1.2473567E2,2.1349416E2,-3.912614E1,-1.836623E1,-3.7358627E1,-3.17234E1,-2.5280884E1,-3.6779167E1,-2.4799578E1,-1.767593E1,-1.9004047E1,-6.3809857E0,-2.1743686E0,8.730861E0,-1.294852E1,4.553431E1,1.4456233E1,3.6634403E1,3.6569283E1,-9.07152E0,4.0421272E1,6.81927E1,3.6559967E1,-2.4084093E1,4.8675316E1,7.851311E1,-6.7370777E0,1.776303E1,-9.351473E0,2.652885E1,1.092776E2,1.4414941E2,2.422452E2,4.8619835E1,-4.1577573E0,-3.8293214E0,-2.2571313E-1,-7.327498E0,-3.618075E0,-3.9889843E0,-3.1819017E0,2.662155E0,-2.6874702E0,-7.8698295E-1,-3.1507192E0,-3.8462827E0,-2.6476276E0,-2.0114853E0,-1.9890083E0,-1.202069E0,-1.3827513E0,-2.9984438E0,-6.7818396E-2,-1.0416418E0,-1.04758315E-1,-2.1098275E0,1.2277144E0,-2.685158E-1,-3.2845623E0,-9.288824E-1,-1.7407742E0,5.2838836E0,2.1480494E0,1.0307866E0,4.489806E0,2.356459E0,-1.2553486E-1,4.9655547E0,-1.8585598E0,6.690172E-1,2.9739006E0,4.55089E0,8.129914E0,4.324613E0,4.999977E-1,4.5413303E0,-3.602411E0,-1.4239134E0,7.011126E0,1.2827834E0,7.065647E0,8.823413E0,-1.3091708E0,6.1634064E-1,9.70193E-1,-1.4572648E0,6.981209E0,1.4049987E0,-2.3199334E0,1.1006924E1,1.7708628E1,1.3438945E1,3.1167562E1,2.200204E1,-2.4303436E-2,1.7081753E1],"categories":[1,3,4,5,6,7,13,14,3,5,6,7,8,9,10,11,12,14,15,4,5,6,7,8,13,14,0,3,4,5,7,14,5,7,9,11,12,14,3,7,8,9,12,14],"categories_nodes":[17,23,25,39,53,57],"categories_segments":[0,8,19,26,32,38],"categories_sizes":[8,11,7,6,6,6],"default_left":[0,0,0,0,0,0,0,0,0,0,0,0,0,0,0,0,0,1,0,0,0,0,0,1,0,1,0,0,0,0,0,0,0,0,0,0,0,0,0,1,0,0,0,0,0,0,0,0,0,0,0,0,0,1,0,0,0,1,0,0,0,0,0,0,0,0,0,0,0,0,0,0,0,0,0,0,0,0,0,0,0,0,0,0,0,0,0,0,0,0,0,0,0,0,0,0,0,0,0,0,0,0,0,0,0,0,0,0,0,0,0,0,0,0,0,0,0,0,0,0,0,0,0,0,0],"id":7,"left_children":[1,3,5,7,9,11,13,15,17,19,21,23,25,27,29,31,33,35,37,39,41,43,45,47,49,51,53,55,57,59,61,63,65,67,69,71,73,75,77,79,81,83,85,87,89,91,93,95,97,99,101,103,105,107,109,111,-1,113,115,117,119,121,123,-1,-1,-1,-1,-1,-1,-1,-1,-1,-1,-1,-1,-1,-1,-1,-1,-1,-1,-1,-1,-1,-1,-1,-1,-1,-1,-1,-1,-1,-1,-1,-1,-1,-1,-1,-1,-1,-1,-1,-1,-1,-1,-1,-1,-1,-1,-1,-1,-1,-1,-1,-1,-1,-1,-1,-1,-1,-1,-1,-1,-1,-1],"loss_changes":[2.3325942E7,4.601539E6,3.657078E6,4.06232E5,6.297734E5,7.63382E5,1.186556E6,4.3754E4,5.5395E4,1.2817002E5,2.8564962E5,1.9574075E5,2.530355E5,6.053524E4,8.50235E5,1.17015E4,1.79735E4,1.26233125E4,3.6249375E4,6.7120234E4,2.933459E4,3.960649E4,1.8780056E5,5.826629E4,1.1370375E5,1.2590801E4,9.39105E4,5.9638523E4,1.8005674E4,1.79312E5,6.186825E5,4.1615E3,2.725505E4,1.06125E3,1.262925E4,4.284008E3,1.3355938E3,9.3566875E3,2.1009938E4,3.0961266E4,4.114067E4,9.104219E3,2.3635395E4,2.6127602E4,6.4369473E3,6.1378844E4,4.9380062E4,1.936668E4,1.4970178E4,7.413525E4,5.14135E4,8.905791E2,2.77842E3,9.515369E4,7.51045E4,4.086007E2,0E0,5.413885E3,9.281527E3,4.0937E4,6.78185E4,1.057925E5,1.2543103E5,0E0,0E0,0E0,0E0,0E0,0E0,0E0,0E0,0E0,0E0,0E0,0E0,0E0,0E0,0E0,0E0,0E0,0E0,0E0,0E0,0E0,0E0,0E0,0E0,0E0,0E0,0E0,0E0,0E0,0E0,0E0,0E0,0E0,0E0,0E0,0E0,0E0,0E0,0E0,0E0,0E0,0E0,0E0,0E0,0E0,0E0,0E0,0E0,0E0,0E0,0E0,0E0,0E0,0E0,0E0,0E0,0E0,0E0,0E0,0E0,0E0,0E0],"parents":[2147483647,0,0,1,1,2,2,3,3,4,4,5,5,6,6,7,7,8,8,9,9,10,10,11,11,12,12,13,13,14,14,15,15,16,16,17,17,18,18,19,19,20,20,21,21,22,22,23,23,24,24,25,25,26,26,27,27,28,28,29,29,30,30,31,31,32,32,33,33,34,34,35,35,36,36,37,37,38,38,39,39,40,40,41,41,42,42,43,43,44,44,45,45,46,46,47,47,48,48,49,49,50,50,51,51,52,52,53,53,54,54,55,55,57,57,58,58,59,59,60,60,61,61,62,62],"right_children":[2,4,6,8,10,12,14,16,18,20,22,24,26,28,30,32,34,36,38,40,42,44,46,48,50,52,54,56,58,60,62,64,66,68,70,72,74,76,78,80,82,84,86,88,90,92,94,96,98,100,102,104,106,108,110,112,-1,114,116,118,120,122,124,-1,-1,-1,-1,-1,-1,-1,-1,-1,-1,-1,-1,-1,-1,-1,-1,-1,-1,-1,-1,-1,-1,-1,-1,-1,-1,-1,-1,-1,-1,-1,-1,-1,-1,-1,-1,-1,-1,-1,-1,-1,-1,-1,-1,-1,-1,-1,-1,-1,-1,-1,-1,-1,-1,-1,-1,-1,-1,-1,-1,-1,-1],"split_conditions":[1.76E2,8.4E1,3.12E2,4.8E1,1.24E2,2.31E2,4.41395E1,2.4E1,5E2,1.65E1,9E2,1E3,2.58678E1,6E0,4.93E2,7.6E1,5E2,1E-45,6.3E1,8E2,1E2,1.97E1,1.95E1,1E-45,2.04E1,1E-45,1.3E3,1.0046E3,-2E-1,3.74E2,3E0,9E0,2.1E1,8E0,1.12E2,7.9E1,1.0087E3,1.67E1,1.68E1,1E-45,5E0,8.9E1,6.5E1,1.4E1,1.25E2,6.3E1,8E0,4.57819E1,1.8E0,1.91E2,8E0,5E2,4E2,1E-45,2.67E2,4.93E2,1.776303E1,1E-45,3.46E2,-1.75E1,3E0,4.9E3,5E0,-4.1577573E0,-3.8293214E0,-2.2571313E-1,-7.327498E0,-3.618075E0,-3.9889843E0,-3.1819017E0,2.662155E0,-2.6874702E0,-7.8698295E-1,-3.1507192E0,-3.8462827E0,-2.6476276E0,-2.0114853E0,-1.9890083E0,-1.202069E0,-1.3827513E0,-2.9984438E0,-6.7818396E-2,-1.0416418E0,-1.04758315E-1,-2.1098275E0,1.2277144E0,-2.685158E-1,-3.2845623E0,-9.288824E-1,-1.7407742E0,5.2838836E0,2.1480494E0,1.0307866E0,4.489806E0,2.356459E0,-1.2553486E-1,4.9655547E0,-1.8585598E0,6.690172E-1,2.9739006E0,4.55089E0,8.129914E0,4.324613E0,4.999977E-1,4.5413303E0,-3.602411E0,-1.4239134E0,7.011126E0,1.2827834E0,7.065647E0,8.823413E0,-1.3091708E0,6.1634064E-1,9.70193E-1,-1.4572648E0,6.981209E0,1.4049987E0,-2.3199334E0,1.1006924E1,1.7708628E1,1.3438945E1,3.1167562E1,2.200204E1,-2.4303436E-2,1.7081753E1],"split_indices":[0,0,0,0,0,0,2,0,3,7,3,3,2,2,0,2,3,10,0,3,0,7,7,10,7,10,3,6,7,0,5,0,4,12,2,0,6,7,7,10,12,2,2,2,0,2,12,2,7,0,12,3,3,10,0,0,0,10,0,7,12,3,12,0,0,0,0,0,0,0,0,0,0,0,0,0,0,0,0,0,0,0,0,0,0,0,0,0,0,0,0,0,0,0,0,0,0,0,0,0,0,0,0,0,0,0,0,0,0,0,0,0,0,0,0,0,0,0,0,0,0,0,0,0,0],"split_type":[0,0,0,0,0,0,0,0,0,0,0,0,0,0,0,0,0,1,0,0,0,0,0,1,0,1,0,0,0,0,0,0,0,0,0,0,0,0,0,1,0,0,0,0,0,0,0,0,0,0,0,0,0,1,0,0,0,1,0,0,0,0,0,0,0,0,0,0,0,0,0,0,0,0,0,0,0,0,0,0,0,0,0,0,0,0,0,0,0,0,0,0,0,0,0,0,0,0,0,0,0,0,0,0,0,0,0,0,0,0,0,0,0,0,0,0,0,0,0,0,0,0,0,0,0],"sum_hessian":[1.9263E4,1.5497E4,3.766E3,9.198E3,6.299E3,2.909E3,8.57E2,5.797E3,3.401E3,3.347E3,2.952E3,1.691E3,1.218E3,7.6E1,7.81E2,2.847E3,2.95E3,4.47E2,2.954E3,2.338E3,1.009E3,3.73E2,2.579E3,1.36E2,1.555E3,3E1,1.188E3,6E0,7E1,6.49E2,1.32E2,2.817E3,3E1,8.39E2,2.111E3,1.61E2,2.86E2,1.258E3,1.696E3,5.51E2,1.787E3,4.27E2,5.82E2,3.62E2,1.1E1,2.113E3,4.66E2,3.8E1,9.8E1,1.388E3,1.67E2,3E0,2.7E1,1.24E2,1.064E3,3E0,3E0,5.2E1,1.8E1,3.65E2,2.84E2,1.12E2,2E1,7.02E2,2.115E3,2.4E1,6E0,5.83E2,2.56E2,2.108E3,3E0,1.47E2,1.4E1,7.4E1,2.12E2,9.23E2,3.35E2,1.217E3,4.79E2,3.76E2,1.75E2,7.41E2,1.046E3,4.04E2,2.3E1,4.44E2,1.38E2,5.5E1,3.07E2,1E0,1E1,7.83E2,1.33E3,2.84E2,1.82E2,1E1,2.8E1,6.1E1,3.7E1,4.5E2,9.38E2,1.08E2,5.9E1,1E0,2E0,1.1E1,1.6E1,7.7E1,4.7E1,5.93E2,4.71E2,2E0,1E0,1.1E1,4.1E1,3E0,1.5E1,2E0,3.63E2,6.1E1,2.23E2,2.4E1,8.8E1,1.5E1,5E0],"tree_param":{"num_deleted":"0","num_feature":"13","num_nodes":"125","size_leaf_vector":"1"}},{"base_weights":[-2.5042152E-2,-1.5527122E1,6.214897E1,-2.762397E1,3.6334007E0,4.4825275E1,1.0729835E2,-3.1727884E1,-1.8235811E1,-4.673942E0,1.2920261E1,3.5367203E1,6.251883E1,1.5672519E1,1.1586037E2,-3.3926918E1,-2.749374E1,-2.0755096E1,-1.116036E1,-4.820524E0,2.2801695E1,-1.0965045E1,1.6342453E1,1.4824082E0,3.831724E1,2.9122908E0,6.5979614E1,6.2727995E0,1.0166184E2,9.846496E1,1.621387E2,-3.413307E1,6.018435E0,-3.2781982E1,-2.6004978E1,-2.5250292E1,-1.7126709E1,-1.3351902E1,-4.9591503E0,-8.169871E0,5.148925E0,-3.1177864E1,-7.526699E0,1.278529E1,3.3993633E1,-1.613604E1,2.2497236E1,4.7922867E1,3.170316E1,-1.9171034E1,6.1607006E1,6.3172714E1,1.06974846E2,7.937432E1,-1.4036288E0,1.1402396E1,1.3824502E-1,8.336566E1,1.088994E2,1.7767912E2,1.1182759E2,-3.6423836E0,-3.2901933E0,-5.406951E-1,4.8231215E0,-3.3246827E0,-2.237095E0,-2.9370928E0,-2.50119E0,-3.2087114E0,-2.2149675E0,-1.9784056E0,-1.3202275E0,-1.466923E0,-4.6727258E-1,-7.1872436E-2,-7.154801E-1,-1.3501749E0,-1.796801E-1,7.410473E-1,-9.6971E-1,-1.4010382E0,-3.273932E0,-9.0383977E-1,3.76699E0,1.9414328E0,8.934888E-1,5.6029525E0,2.9855266E0,1.3432139E-1,-2.2789261E0,6.4006395E0,9.292547E-1,3.2552223E0,5.4208536E0,2.5577273E0,3.9739072E0,-2.5122833E0,4.121035E-1,7.498025E0,-1.6879386E0,8.103158E0,5.9170666E0,1.1645457E1,3.4354699E0,1.3198817E1,-6.236578E-1,-1.3671722E0,1.2948136E0,7.274408E0,9.517056E0,1.1039225E1,-1.1509961E0,1.5749138E1,2.3357094E1,5.0897117E0,1.5114285E1],"categories":[],"categories_nodes":[],"categories_segments":[],"categories_sizes":[],"default_left":[0,0,0,0,0,0,0,0,0,0,0,0,0,0,0,0,0,0,0,0,0,0,0,0,0,0,0,0,0,0,0,0,0,0,0,0,0,0,0,0,0,0,0,0,0,0,0,0,0,0,0,0,0,0,0,0,0,0,0,0,0,0,0,0,0,0,0,0,0,0,0,0,0,0,0,0,0,0,0,0,0,0,0,0,0,0,0,0,0,0,0,0,0,0,0,0,0,0,0,0,0,0,0,0,0,0,0,0,0,0,0,0,0,0,0,0,0],"id":8,"left_children":[1,3,5,7,9,11,13,15,17,19,21,23,25,27,29,31,33,35,37,39,-1,41,43,45,47,49,51,53,55,57,59,61,63,65,67,69,71,73,75,77,79,81,83,85,87,89,91,93,95,97,99,101,103,105,107,-1,-1,109,111,113,115,-1,-1,-1,-1,-1,-1,-1,-1,-1,-1,-1,-1,-1,-1,-1,-1,-1,-1,-1,-1,-1,-1,-1,-1,-1,-1,-1,-1,-1,-1,-1,-1,-1,-1,-1,-1,-1,-1,-1,-1,-1,-1,-1,-1,-1,-1,-1,-1,-1,-1,-1,-1,-1,-1,-1,-1],"loss_changes":[1.852571E7,3.5660658E6,2.995535E6,3.627805E5,4.5948347E5,4.620095E5,8.3211E5,6.0157E4,5.0944125E4,1.0833577E5,2.3003244E5,1.8087325E5,1.98873E5,7.372364E4,7.66523E5,3.57305E4,1.6846E4,3.4080125E4,1.0207984E4,1.04990445E5,0E0,2.4298363E4,1.5402419E5,5.4419324E4,1.0426225E5,7.117449E4,9.818575E4,4.724873E4,1.0999359E4,1.026265E5,1.865405E5,1.0906E4,1.1353621E4,1.6275625E3,5.145E3,1.9279375E4,1.1981969E4,6.31125E3,1.847646E3,7.993169E4,2.6629686E4,9.084258E2,2.104253E4,5.2126156E4,3.5898625E4,9.334078E3,3.6128957E4,6.36435E4,4.7669125E4,5.6487188E3,1.7009879E4,5.63855E4,3.5239125E4,3.6857707E4,1.3734321E4,0E0,0E0,2.9940625E4,7.60475E4,1.888805E5,1.4801462E5,0E0,0E0,0E0,0E0,0E0,0E0,0E0,0E0,0E0,0E0,0E0,0E0,0E0,0E0,0E0,0E0,0E0,0E0,0E0,0E0,0E0,0E0,0E0,0E0,0E0,0E0,0E0,0E0,0E0,0E0,0E0,0E0,0E0,0E0,0E0,0E0,0E0,0E0,0E0,0E0,0E0,0E0,0E0,0E0,0E0,0E0,0E0,0E0,0E0,0E0,0E0,0E0,0E0,0E0,0E0,0E0],"parents":[2147483647,0,0,1,1,2,2,3,3,4,4,5,5,6,6,7,7,8,8,9,9,10,10,11,11,12,12,13,13,14,14,15,15,16,16,17,17,18,18,19,19,21,21,22,22,23,23,24,24,25,25,26,26,27,27,28,28,29,29,30,30,31,31,32,32,33,33,34,34,35,35,36,36,37,37,38,38,39,39,40,40,41,41,42,42,43,43,44,44,45,45,46,46,47,47,48,48,49,49,50,50,51,51,52,52,53,53,54,54,57,57,58,58,59,59,60,60],"right_children":[2,4,6,8,10,12,14,16,18,20,22,24,26,28,30,32,34,36,38,40,-1,42,44,46,48,50,52,54,56,58,60,62,64,66,68,70,72,74,76,78,80,82,84,86,88,90,92,94,96,98,100,102,104,106,108,-1,-1,110,112,114,116,-1,-1,-1,-1,-1,-1,-1,-1,-1,-1,-1,-1,-1,-1,-1,-1,-1,-1,-1,-1,-1,-1,-1,-1,-1,-1,-1,-1,-1,-1,-1,-1,-1,-1,-1,-1,-1,-1,-1,-1,-1,-1,-1,-1,-1,-1,-1,-1,-1,-1,-1,-1,-1,-1,-1,-1],"split_conditions":[1.73E2,8.6E1,2.88E2,5.5E1,1.24E2,2.31E2,4.7E1,3.5E1,1.67E1,1.33E2,9E2,1E3,1E3,1.7E3,4.12E2,6.2E1,5E2,9E0,7.8E1,1.73E1,2.2801695E1,1.7E1,2.02E1,1.5E1,7.6E1,1.7E1,2.14E1,6E0,3.21E2,3.21E2,1.8E0,1.5E1,1.19E2,1.36E2,1.7E1,-2.7E0,7.4E1,2.31E1,7E0,1.9E1,7.7E1,2.8E0,1.97E1,6.1E1,7E0,1.9E0,2E0,1.3E3,2.04E2,-5E-1,1.7E0,3E0,8E0,8.2E1,-3E0,1.1402396E1,1.3824502E-1,1.1E1,3.6E0,5.81E2,5.1E0,-3.6423836E0,-3.2901933E0,-5.406951E-1,4.8231215E0,-3.3246827E0,-2.237095E0,-2.9370928E0,-2.50119E0,-3.2087114E0,-2.2149675E0,-1.9784056E0,-1.3202275E0,-1.466923E0,-4.6727258E-1,-7.1872436E-2,-7.154801E-1,-1.3501749E0,-1.796801E-1,7.410473E-1,-9.6971E-1,-1.4010382E0,-3.273932E0,-9.0383977E-1,3.76699E0,1.9414328E0,8.934888E-1,5.6029525E0,2.9855266E0,1.3432139E-1,-2.2789261E0,6.4006395E0,9.292547E-1,3.2552223E0,5.4208536E0,2.5577273E0,3.9739072E0,-2.5122833E0,4.121035E-1,7.498025E0,-1.6879386E0,8.103158E0,5.9170666E0,1.1645457E1,3.4354699E0,1.3198817E1,-6.236578E-1,-1.3671722E0,1.2948136E0,7.274408E0,9.517056E0,1.1039225E1,-1.1509961E0,1.5749138E1,2.3357094E1,5.0897117E0,1.5114285E1],"split_indices":[0,0,0,0,0,0,2,0,7,1,3,3,3,3,0,1,3,1,0,7,0,2,7,1,2,1,7,2,0,0,7,0,2,4,4,7,0,7,11,1,2,9,7,2,12,9,12,3,0,7,9,12,12,4,7,0,0,4,9,0,7,0,0,0,0,0,0,0,0,0,0,0,0,0,0,0,0,0,0,0,0,0,0,0,0,0,0,0,0,0,0,0,0,0,0,0,0,0,0,0,0,0,0,0,0,0,0,0,0,0,0,0,0,0,0,0,0],"split_type":[0,0,0,0,0,0,0,0,0,0,0,0,0,0,0,0,0,0,0,0,0,0,0,0,0,0,0,0,0,0,0,0,0,0,0,0,0,0,0,0,0,0,0,0,0,0,0,0,0,0,0,0,0,0,0,0,0,0,0,0,0,0,0,0,0,0,0,0,0,0,0,0,0,0,0,0,0,0,0,0,0,0,0,0,0,0,0,0,0,0,0,0,0,0,0,0,0,0,0,0,0,0,0,0,0,0,0,0,0,0,0,0,0,0,0,0,0],"sum_hessian":[1.9219E4,1.5384E4,3.835E3,9.43E3,5.954E3,2.773E3,1.062E3,6.56E3,2.87E3,3.143E3,2.811E3,1.809E3,9.64E2,9.1E1,9.71E2,4.313E3,2.247E3,2.115E3,7.55E2,3.142E3,1E0,3.52E2,2.459E3,1.45E2,1.664E3,5.3E1,9.11E2,8.3E1,8E0,7.08E2,2.63E2,4.291E3,2.2E1,4.89E2,1.758E3,9.42E2,1.173E3,5.57E2,1.98E2,2.352E3,7.9E2,5E1,3.02E2,2.048E3,4.11E2,7.9E1,6.6E1,6.76E2,9.88E2,3.9E1,1.4E1,8.55E2,5.6E1,7E0,7.6E1,7E0,1E0,2.93E2,4.15E2,1.99E2,6.4E1,1.49E3,2.801E3,1.8E1,4E0,4.66E2,2.3E1,3.94E2,1.364E3,2.91E2,6.51E2,6.97E2,4.76E2,4.83E2,7.4E1,6.8E1,1.3E2,1.28E3,1.072E3,6.86E2,1.04E2,5E0,4.5E1,2.93E2,9E0,7.51E2,1.297E3,6.3E1,3.48E2,2.2E1,5.7E1,1.5E1,5.1E1,1.98E2,4.78E2,5.63E2,4.25E2,3.1E1,8E0,1.2E1,2E0,1.53E2,7.02E2,4.9E1,7E0,4E0,3E0,4.1E1,3.5E1,1.58E2,1.35E2,4.1E2,5E0,1.49E2,5E1,2.6E1,3.8E1],"tree_param":{"num_deleted":"0","num_feature":"13","num_nodes":"117","size_leaf_vector":"1"}},{"base_weights":[1.1914151E-1,-1.5008091E1,5.291605E1,-2.5612717E1,6.8755746E-1,3.656507E1,9.4494156E1,-2.9882122E1,-1.9654345E1,-7.5363655E0,7.2307243E0,2.5581318E1,4.939886E1,8.081505E1,1.3562685E2,-3.0019775E1,7.23019E0,-2.6250418E1,-1.7876278E1,-7.674212E0,1.8025698E1,-1.014083E1,1.030307E1,-1.0173292E0,2.8598896E1,6.4463224E0,5.216931E1,3.3717866E0,8.4750465E1,1.5058154E2,2.1776342E1,-3.1963123E1,-2.8084314E1,3.526297E1,-1.8911444E1,-2.1241257E1,-3.0134892E1,-2.0870996E1,-1.4911974E1,-2.1481417E1,-6.6853004E0,-1.7674877E1,-3.92535E0,5.89214E0,1.5307179E1,-1.00400715E1,1.5269867E1,3.7610706E1,2.6323858E1,-1.1908265E1,4.7675343E1,4.679844E1,6.1321617E1,-9.582824E0,7.506579E0,7.573509E1,1.0156306E2,1.69096E2,9.445738E1,7.901396E1,2.6008108E0,-3.2421424E0,-2.6477551E0,-3.0541024E0,-2.6940105E0,3.4918416E-1,4.2769275E0,1.057684E-1,-5.4121842E0,-2.5206401E0,-1.4142804E0,-2.57398E0,-3.1583982E0,-2.1024573E0,6.207896E-1,-1.536886E0,-2.5622278E-1,-1.1686511E0,-2.8500168E0,-9.939584E-1,-3.980033E-1,-2.398587E0,-7.1710175E-1,-6.034913E-1,1.2480506E0,1.3897899E0,4.1567943E-1,1.0770048E0,2.2634437E0,8.712279E-1,-1.6861435E0,4.0582366E0,-4.693199E-1,4.402531E0,2.446954E0,3.8862972E0,2.3651993E0,6.7556505E0,-1.435862E0,6.5241866E0,1.6192955E0,4.302925E0,5.7473474E0,6.5548015E0,4.8070498E0,9.352568E-1,-1.8344946E0,7.661386E0,-5.511727E-1,-2.1986954E0,1.0288954E1,1.3703687E1,1.9852865E1,7.8089013E0,2.2594044E1,9.419033E0,-2.119852E0,4.869094E0,-9.5357794E-1],"categories":[1,2,5,8,9,1,3,5,6,7,9,13,14,0,1,3,4,5,6,7,8,10,11,12,13,15,1,3,4,5,7,9,14,6,9,10,11,12,14,15,1,4,5,6,7,12,13,15,0,2,3,4,5,6,7,8,9,10,11,12,13,14,15,0,2,7,8,10,11,12,14],"categories_nodes":[16,17,30,39,46,47,49,53],"categories_segments":[0,5,13,26,33,40,48,63],"categories_sizes":[5,8,13,7,7,8,15,8],"default_left":[0,0,0,0,0,0,0,0,0,0,0,0,0,0,0,0,1,1,0,0,0,0,0,0,0,0,0,0,0,0,1,0,0,0,0,0,0,0,0,1,0,0,0,0,0,0,1,1,0,1,0,0,0,1,0,0,0,0,0,0,0,0,0,0,0,0,0,0,0,0,0,0,0,0,0,0,0,0,0,0,0,0,0,0,0,0,0,0,0,0,0,0,0,0,0,0,0,0,0,0,0,0,0,0,0,0,0,0,0,0,0,0,0,0,0,0,0,0,0],"id":9,"left_children":[1,3,5,7,9,11,13,15,17,19,21,23,25,27,29,31,33,35,37,39,-1,41,43,45,47,49,51,53,55,57,59,61,63,65,67,69,71,73,75,77,79,81,83,85,87,89,91,93,95,97,99,101,103,105,-1,107,109,111,113,115,117,-1,-1,-1,-1,-1,-1,-1,-1,-1,-1,-1,-1,-1,-1,-1,-1,-1,-1,-1,-1,-1,-1,-1,-1,-1,-1,-1,-1,-1,-1,-1,-1,-1,-1,-1,-1,-1,-1,-1,-1,-1,-1,-1,-1,-1,-1,-1,-1,-1,-1,-1,-1,-1,-1,-1,-1,-1,-1],"loss_changes":[1.5356045E7,2.48756E6,2.907632E6,2.263005E5,3.2437038E5,4.32198E5,6.68731E5,2.67515E4,4.3230125E4,7.0526625E4,1.792724E5,1.3318625E5,1.68284E5,2.76751E5,5.075005E5,1.8567E4,1.5323327E4,1.47121875E4,2.5770125E4,3.6312844E4,0E0,2.3578617E4,6.2883375E4,2.513569E4,2.955825E4,6.640425E4,6.25565E4,4.2513902E4,1.234175E5,2.593915E5,3.9306723E4,5.61525E3,6.488625E3,2.2354932E3,7.791573E3,9.438469E3,2.0020938E3,6.1979375E3,8.311375E3,1.190407E4,2.1908094E4,1.494207E4,9.696672E3,2.1031441E4,4.417122E4,1.4217725E4,3.1014682E4,2.404275E4,3.904975E4,1.2847748E4,1.3875516E4,3.1446125E4,2.423525E4,6.642226E3,0E0,4.090475E4,5.126425E4,1.59624E5,1.2870356E5,1.5684461E4,1.612686E4,0E0,0E0,0E0,0E0,0E0,0E0,0E0,0E0,0E0,0E0,0E0,0E0,0E0,0E0,0E0,0E0,0E0,0E0,0E0,0E0,0E0,0E0,0E0,0E0,0E0,0E0,0E0,0E0,0E0,0E0,0E0,0E0,0E0,0E0,0E0,0E0,0E0,0E0,0E0,0E0,0E0,0E0,0E0,0E0,0E0,0E0,0E0,0E0,0E0,0E0,0E0,0E0,0E0,0E0,0E0,0E0,0E0,0E0],"parents":[2147483647,0,0,1,1,2,2,3,3,4,4,5,5,6,6,7,7,8,8,9,9,10,10,11,11,12,12,13,13,14,14,15,15,16,16,17,17,18,18,19,19,21,21,22,22,23,23,24,24,25,25,26,26,27,27,28,28,29,29,30,30,31,31,32,32,33,33,34,34,35,35,36,36,37,37,38,38,39,39,40,40,41,41,42,42,43,43,44,44,45,45,46,46,47,47,48,48,49,49,50,50,51,51,52,52,53,53,55,55,56,56,57,57,58,58,59,59,60,60],"right_children":[2,4,6,8,10,12,14,16,18,20,22,24,26,28,30,32,34,36,38,40,-1,42,44,46,48,50,52,54,56,58,60,62,64,66,68,70,72,74,76,78,80,82,84,86,88,90,92,94,96,98,100,102,104,106,-1,108,110,112,114,116,118,-1,-1,-1,-1,-1,-1,-1,-1,-1,-1,-1,-1,-1,-1,-1,-1,-1,-1,-1,-1,-1,-1,-1,-1,-1,-1,-1,-1,-1,-1,-1,-1,-1,-1,-1,-1,-1,-1,-1,-1,-1,-1,-1,-1,-1,-1,-1,-1,-1,-1,-1,-1,-1,-1,-1,-1,-1,-1],"split_conditions":[1.62E2,8E1,2.77E2,4.2E1,1.11E2,2.07E2,4.12E2,6.7E1,6E2,1.33E2,9E2,1E3,1E3,1E3,2.8E0,2.2E1,1E-45,1E-45,6.1E1,5E2,1.8025698E1,9.4248E0,1.36E2,2E1,1.0026E3,2.1E1,2.47E2,5.08368E1,3.46E2,8.9E0,1E-45,1.6E1,5E2,1.4E1,8.9E1,5.712E0,1.009E3,6E1,4.5E1,1E-45,9.4E1,7E2,3.3E1,5E0,2.02E1,1.0035E3,1E-45,1E-45,3E0,1E-45,2E0,1.93E1,3.299E3,1E-45,7.506579E0,3.9E0,9.969E2,4.93E2,1.79E1,1.6E1,5E0,-3.2421424E0,-2.6477551E0,-3.0541024E0,-2.6940105E0,3.4918416E-1,4.2769275E0,1.057684E-1,-5.4121842E0,-2.5206401E0,-1.4142804E0,-2.57398E0,-3.1583982E0,-2.1024573E0,6.207896E-1,-1.536886E0,-2.5622278E-1,-1.1686511E0,-2.8500168E0,-9.939584E-1,-3.980033E-1,-2.398587E0,-7.1710175E-1,-6.034913E-1,1.2480506E0,1.3897899E0,4.1567943E-1,1.0770048E0,2.2634437E0,8.712279E-1,-1.6861435E0,4.0582366E0,-4.693199E-1,4.402531E0,2.446954E0,3.8862972E0,2.3651993E0,6.7556505E0,-1.435862E0,6.5241866E0,1.6192955E0,4.302925E0,5.7473474E0,6.5548015E0,4.8070498E0,9.352568E-1,-1.8344946E0,7.661386E0,-5.511727E-1,-2.1986954E0,1.0288954E1,1.3703687E1,1.9852865E1,7.8089013E0,2.2594044E1,9.419033E0,-2.119852E0,4.869094E0,-9.5357794E-1],"split_indices":[0,0,0,0,0,0,0,1,3,1,3,3,3,3,9,0,10,10,0,3,0,1,0,1,6,1,0,1,0,5,10,1,3,0,1,1,6,1,1,10,0,3,1,1,5,6,10,10,12,10,12,5,3,10,0,9,6,0,5,11,11,0,0,0,0,0,0,0,0,0,0,0,0,0,0,0,0,0,0,0,0,0,0,0,0,0,0,0,0,0,0,0,0,0,0,0,0,0,0,0,0,0,0,0,0,0,0,0,0,0,0,0,0,0,0,0,0,0,0],"split_type":[0,0,0,0,0,0,0,0,0,0,0,0,0,0,0,0,1,1,0,0,0,0,0,0,0,0,0,0,0,0,1,0,0,0,0,0,0,0,0,1,0,0,0,0,0,0,1,1,0,1,0,0,0,1,0,0,0,0,0,0,0,0,0,0,0,0,0,0,0,0,0,0,0,0,0,0,0,0,0,0,0,0,0,0,0,0,0,0,0,0,0,0,0,0,0,0,0,0,0,0,0,0,0,0,0,0,0,0,0,0,0,0,0,0,0,0,0,0,0],"sum_hessian":[1.9225E4,1.4944E4,4.281E3,8.918E3,6.026E3,3.074E3,1.207E3,5.193E3,3.725E3,2.67E3,3.356E3,1.658E3,1.416E3,9.08E2,2.99E2,5.174E3,1.9E1,7.88E2,2.937E3,2.669E3,1E0,5.04E2,2.852E3,1.69E2,1.489E3,8.6E1,1.33E3,4.4E1,8.64E2,2.64E2,3.5E1,2.574E3,2.6E3,9E0,1E1,3.47E2,4.41E2,1.458E3,1.479E3,1.77E2,2.492E3,2.27E2,2.77E2,1.517E3,1.335E3,1.09E2,6E1,2.97E2,1.192E3,6E1,2.6E1,8.42E2,4.88E2,3.8E1,6E0,5.66E2,2.98E2,1.97E2,6.7E1,8E0,2.7E1,2.371E3,2.03E2,8.18E2,1.782E3,2E0,7E0,7E0,3E0,2.21E2,1.26E2,1.14E2,3.27E2,1.45E3,8E0,1.426E3,5.3E1,7.5E1,1.02E2,1.13E3,1.362E3,1.41E2,8.6E1,2.46E2,3.1E1,2.69E2,1.248E3,8.26E2,5.09E2,2.9E1,8E1,2.6E1,3.4E1,1.98E2,9.9E1,2.07E2,9.85E2,1E0,5.9E1,1.6E1,1E1,6.26E2,2.16E2,3.67E2,1.21E2,1.2E1,2.6E1,5.6E2,6E0,3E0,2.95E2,9.7E1,1E2,6.1E1,6E0,7E0,1E0,5E0,2.2E1],"tree_param":{"num_deleted":"0","num_feature":"13","num_nodes":"119","size_leaf_vector":"1"}},{"base_weights":[2.8152645E-1,-1.1308157E1,5.7097324E1,-2.1008059E1,6.7998977E0,4.438181E1,9.881345E1,-2.5591967E1,-1.2865131E1,1.7431943E0,1.7207829E1,3.59662E1,5.8885136E1,1.1057406E2,2.5542433E1,-2.7578924E1,-2.1915045E1,-1.3075165E1,2.525649E1,-1.2195387E1,3.846756E0,-3.0894783E0,2.02306E1,6.0417557E0,3.7901855E1,4.587261E0,6.1566635E1,9.81592E1,1.6316997E2,3.7023E0,8.074736E1,-2.7740578E1,8.377352E0,-2.5402893E1,-2.0479267E1,-2.2240913E1,-1.2044048E1,-1.6976158E1,1.3149601E0,1.10841386E-1,8.299004E0,-7.7937207E0,1.0839528E1,1.06985035E1,2.4995539E1,4.891709E1,-4.3465114E0,3.0034395E1,4.2140305E1,-1.044345E1,5.6736027E1,7.77248E1,5.8223183E1,1.1378796E2,8.894469E1,1.7804247E2,3.46596E1,2.5755234E1,-1.7340546E1,1.3295112E1,6.215679E1,-3.0295312E0,-2.7008135E0,2.373344E0,-2.353159E0,-2.6417058E0,-1.8244895E0,-2.366617E0,-1.9319992E0,-9.166018E-1,-2.3683755E0,-1.4593105E0,-8.7093973E-1,-2.4144916E-1,-1.986121E0,4.991597E0,-1.0473062E-1,-7.710279E-1,1.7359336E-1,1.407333E-2,1.0899645E0,-1.5485117E0,3.3760098E-1,4.454633E0,-3.8746163E-2,1.5723122E0,3.0751532E-1,3.3940587E0,2.2548392E0,-2.5668888E0,5.9201846E0,2.8409815E0,-7.4279875E-1,3.4567482E0,1.2541441E0,3.4055927E0,5.0566497E0,1.1236221E0,-2.084814E0,6.1856594E0,5.3254473E-1,8.343077E0,5.7972374E0,4.836635E0,6.3642173E0,1.1618018E1,1.9867125E0,2.4018502E0,9.188548E0,1.4652631E1,2.1716997E1,1.8758429E1,-6.4598674E-1,4.899557E0,-2.7893373E-1,-4.6770427E-1,-2.7489E0,7.3734674E0,3.4139055E-1],"categories":[0,1,2,4,5,6,8,9,10,11,14,15,1,2,5,9,0,1,3,4,5,6,7,9,12,13,14,15,0,1,2,3,4,6,7,9,10,12,13,14,15,0,1,2,3,4,5,6,7,8,9,11,12,13,14,15,6,8,9,10,11,12,13,14,15,0,1,2,3,4,7,9,11,12,13,15,2,3,4,5,6,7,8,9,10,11,12,13,14,15,0,2,5,7,8,9,10,12,14,1,3,4,5,6,9,10,11,12,13,14],"categories_nodes":[30,32,35,37,38,42,44,46,49,57],"categories_segments":[0,12,16,28,41,56,65,76,90,99],"categories_sizes":[12,4,12,13,15,9,11,14,9,11],"default_left":[0,0,0,0,0,0,0,0,0,0,0,0,0,0,0,0,0,0,0,0,0,0,0,0,0,0,0,0,0,0,1,0,1,0,0,1,0,1,1,0,0,0,1,0,1,0,1,0,0,1,0,0,0,0,0,0,0,1,0,0,0,0,0,0,0,0,0,0,0,0,0,0,0,0,0,0,0,0,0,0,0,0,0,0,0,0,0,0,0,0,0,0,0,0,0,0,0,0,0,0,0,0,0,0,0,0,0,0,0,0,0,0,0,0,0,0,0,0,0],"id":10,"left_children":[1,3,5,7,9,11,13,15,17,19,21,23,25,27,29,31,33,35,-1,37,39,41,43,45,47,49,51,53,55,57,59,61,63,65,67,69,71,73,75,77,79,81,83,85,87,89,91,93,95,97,99,101,103,105,107,109,111,113,115,-1,117,-1,-1,-1,-1,-1,-1,-1,-1,-1,-1,-1,-1,-1,-1,-1,-1,-1,-1,-1,-1,-1,-1,-1,-1,-1,-1,-1,-1,-1,-1,-1,-1,-1,-1,-1,-1,-1,-1,-1,-1,-1,-1,-1,-1,-1,-1,-1,-1,-1,-1,-1,-1,-1,-1,-1,-1,-1,-1],"loss_changes":[1.260785E7,2.7934465E6,1.716368E6,3.862235E5,2.919602E5,3.015535E5,6.49491E5,4.77975E4,2.1135844E5,1.0955959E5,1.1135881E5,9.111625E4,1.325045E5,4.0972E5,1.2750343E5,2.5208E4,1.114275E4,3.4984188E4,0E0,3.1671375E4,5.3990508E4,1.55484795E4,7.145056E4,4.3416457E4,4.81195E4,3.508117E4,4.24215E4,6.62055E4,2.2891525E5,3.6178957E4,2.085111E4,7.187E3,1.0358415E4,4.418125E3,5.6571875E3,6.8761406E3,2.8391125E4,1.5160086E4,1.4862577E4,2.2459318E4,3.1420445E4,1.5258493E4,2.2722812E4,2.017639E4,2.2262812E4,1.609452E4,8.185118E3,4.0959562E4,6.36735E4,8.129214E3,2.3031016E3,1.16185E4,3.559375E4,4.1055E4,6.2329E4,1.038255E5,8.92463E4,2.534531E4,5.0120312E3,0E0,1.6071117E4,0E0,0E0,0E0,0E0,0E0,0E0,0E0,0E0,0E0,0E0,0E0,0E0,0E0,0E0,0E0,0E0,0E0,0E0,0E0,0E0,0E0,0E0,0E0,0E0,0E0,0E0,0E0,0E0,0E0,0E0,0E0,0E0,0E0,0E0,0E0,0E0,0E0,0E0,0E0,0E0,0E0,0E0,0E0,0E0,0E0,0E0,0E0,0E0,0E0,0E0,0E0,0E0,0E0,0E0,0E0,0E0,0E0,0E0],"parents":[2147483647,0,0,1,1,2,2,3,3,4,4,5,5,6,6,7,7,8,8,9,9,10,10,11,11,12,12,13,13,14,14,15,15,16,16,17,17,19,19,20,20,21,21,22,22,23,23,24,24,25,25,26,26,27,27,28,28,29,29,30,30,31,31,32,32,33,33,34,34,35,35,36,36,37,37,38,38,39,39,40,40,41,41,42,42,43,43,44,44,45,45,46,46,47,47,48,48,49,49,50,50,51,51,52,52,53,53,54,54,55,55,56,56,57,57,58,58,60,60],"right_children":[2,4,6,8,10,12,14,16,18,20,22,24,26,28,30,32,34,36,-1,38,40,42,44,46,48,50,52,54,56,58,60,62,64,66,68,70,72,74,76,78,80,82,84,86,88,90,92,94,96,98,100,102,104,106,108,110,112,114,116,-1,118,-1,-1,-1,-1,-1,-1,-1,-1,-1,-1,-1,-1,-1,-1,-1,-1,-1,-1,-1,-1,-1,-1,-1,-1,-1,-1,-1,-1,-1,-1,-1,-1,-1,-1,-1,-1,-1,-1,-1,-1,-1,-1,-1,-1,-1,-1,-1,-1,-1,-1,-1,-1,-1,-1,-1,-1,-1,-1],"split_conditions":[1.88E2,9.7E1,3.21E2,5.6E1,1.48E2,2.5E2,2.2E0,3.5E1,1.33E2,8E2,1E3,9E2,1E3,4.93E2,2.1E3,6.7E1,6E2,5E2,2.525649E1,1.5E1,1.23E2,2.1E1,8E0,2E0,8E0,1.5E1,3E0,4E0,5.5E0,1.5E1,1E-45,1.1E1,1E-45,1.14E2,1.8E1,1E-45,7.9E1,1E-45,1E-45,5E0,8E0,8E2,1E-45,6.9E0,1E-45,1.1424E1,1E-45,1.11E1,6E0,1E-45,2.1E1,4.7E3,6E0,7.1E3,6E0,3E1,1.1E3,1E-45,1.9E1,1.3295112E1,5.3E1,-3.0295312E0,-2.7008135E0,2.373344E0,-2.353159E0,-2.6417058E0,-1.8244895E0,-2.366617E0,-1.9319992E0,-9.166018E-1,-2.3683755E0,-1.4593105E0,-8.7093973E-1,-2.4144916E-1,-1.986121E0,4.991597E0,-1.0473062E-1,-7.710279E-1,1.7359336E-1,1.407333E-2,1.0899645E0,-1.5485117E0,3.3760098E-1,4.454633E0,-3.8746163E-2,1.5723122E0,3.0751532E-1,3.3940587E0,2.2548392E0,-2.5668888E0,5.9201846E0,2.8409815E0,-7.4279875E-1,3.4567482E0,1.2541441E0,3.4055927E0,5.0566497E0,1.1236221E0,-2.084814E0,6.1856594E0,5.3254473E-1,8.343077E0,5.7972374E0,4.836635E0,6.3642173E0,1.1618018E1,1.9867125E0,2.4018502E0,9.188548E0,1.4652631E1,2.1716997E1,1.8758429E1,-6.4598674E-1,4.899557E0,-2.7893373E-1,-4.6770427E-1,-2.7489E0,7.3734674E0,3.4139055E-1],"split_indices":[0,0,0,0,0,0,9,0,1,3,3,3,3,0,3,1,3,3,0,1,0,1,4,12,4,1,12,12,5,11,10,0,10,4,4,10,0,10,10,4,4,3,10,5,10,1,10,5,12,10,11,3,12,3,12,1,3,10,11,0,4,0,0,0,0,0,0,0,0,0,0,0,0,0,0,0,0,0,0,0,0,0,0,0,0,0,0,0,0,0,0,0,0,0,0,0,0,0,0,0,0,0,0,0,0,0,0,0,0,0,0,0,0,0,0,0,0,0,0],"split_type":[0,0,0,0,0,0,0,0,0,0,0,0,0,0,0,0,0,0,0,0,0,0,0,0,0,0,0,0,0,0,1,0,1,0,0,1,0,1,1,0,0,0,1,0,1,0,1,0,0,1,0,0,0,0,0,0,0,1,0,0,0,0,0,0,0,0,0,0,0,0,0,0,0,0,0,0,0,0,0,0,0,0,0,0,0,0,0,0,0,0,0,0,0,0,0,0,0,0,0,0,0,0,0,0,0,0,0,0,0,0,0,0,0,0,0,0,0,0,0],"sum_hessian":[1.9145E4,1.5902E4,3.243E3,1.0355E4,5.547E3,2.487E3,7.56E2,6.624E3,3.731E3,3.734E3,1.813E3,1.576E3,9.11E2,6.51E2,1.05E2,4.296E3,2.328E3,3.729E3,2E0,4.89E2,3.245E3,2.35E2,1.578E3,9.6E1,1.48E3,4.3E1,8.68E2,5.29E2,1.22E2,7.6E1,2.9E1,4.277E3,1.9E1,6.74E2,1.654E3,3.75E2,3.354E3,3.61E2,1.28E2,1.765E3,1.48E3,1.76E2,5.9E1,5.27E2,1.051E3,1.8E1,7.8E1,5.21E2,9.59E2,3.4E1,9E0,1.45E2,7.23E2,1.92E2,3.37E2,1.09E2,1.3E1,3.7E1,3.9E1,6E0,2.3E1,9.44E2,3.333E3,1.3E1,6E0,5.88E2,8.6E1,4.36E2,1.218E3,3.8E1,3.37E2,1.899E3,1.455E3,6E1,3.01E2,5E0,1.23E2,3.03E2,1.462E3,3.58E2,1.122E3,1.04E2,7.2E1,1.4E1,4.5E1,3.17E2,2.1E2,2.23E2,8.28E2,2E0,1.6E1,6E0,7.2E1,4.13E2,1.08E2,4.92E2,4.67E2,1.1E1,2.3E1,8E0,1E0,1.1E2,3.5E1,2.6E2,4.63E2,1.87E2,5E0,1.5E1,3.22E2,6.3E1,4.6E1,2E0,1.1E1,2E1,1.7E1,1.8E1,2.1E1,1.9E1,4E0],"tree_param":{"num_deleted":"0","num_feature":"13","num_nodes":"119","size_leaf_vector":"1"}},{"base_weights":[-5.5189163E-4,-1.0126672E1,5.1366432E1,-1.9438665E1,5.3026E0,4.084731E1,8.484183E1,-2.3109161E1,-1.2239111E1,-4.4396785E-1,1.3085616E1,3.2260563E1,5.1349476E1,-1.8865652E0,9.2774734E1,-2.4815922E1,-1.9672663E1,-1.2456609E1,2.3572725E1,-3.698132E0,9.552581E0,1.0005454E1,3.0681051E1,2.8900486E1,5.2005836E1,2.3392391E0,5.3833565E1,4.8179256E1,-6.946029E0,8.280806E1,1.393433E2,-2.4959772E1,-2.2535763E0,-2.206931E1,-1.7605816E1,-1.4424613E1,-7.141637E0,-8.418418E0,1.1421126E0,1.1834597E1,6.8289703E-1,-1.1997435E1,1.1924745E1,3.4654175E1,1.8566252E1,1.1052167E1,3.3291424E1,1.39665165E1,5.564205E1,-1.20429E1,5.8347673E0,4.8827133E1,6.9658134E1,-6.6624956E0,1.0524184E1,1.1228993E1,-1.088438E1,1.3466168E2,7.926761E1,1.5703754E2,2.2899635E1,-2.6937878E0,-2.390288E0,-5.573494E0,6.061002E-1,-2.4699798E0,-1.864855E0,-1.7842801E0,-3.0195886E-2,-1.9450219E0,-1.2264479E0,-9.924313E-1,-3.609321E-1,-1.6424168E0,-5.8453E-1,-6.406604E-2,7.5751173E-1,7.10699E-1,1.60894E0,-2.1574603E-1,4.3226175E0,-1.7448854E0,1.1123128E0,1.7870163E0,8.857567E-1,3.6425157E0,7.943301E-1,2.7464988E0,-5.192184E-1,-1.0754373E0,2.594134E0,4.47872E0,2.3737092E0,2.22359E0,-3.4792364E0,4.9069705E0,6.933858E0,-2.594907E0,1.3045579E0,5.3205004E0,2.9061277E0,7.138218E0,1.0894819E-1,3.8719827E-1,-1.146465E0,4.0651622E-1,2.8977487E0,-1.5668248E0,2.1944462E-1,9.720125E0,1.7812883E1,4.5066824E0,8.5168915E0,2.4210876E1,1.4437202E1,-9.062812E-1,1.7507866E1],"categories":[0,2,3,7,8,9,11,12,14,7,11,12,13,15,7,14],"categories_nodes":[28,44,52,53],"categories_segments":[0,9,13,14],"categories_sizes":[9,4,1,2],"default_left":[0,0,0,0,0,0,0,0,0,0,0,0,0,0,0,0,0,0,0,0,0,0,0,0,0,0,0,0,1,0,0,0,0,0,0,0,0,0,0,0,0,0,0,0,1,0,0,0,0,0,0,0,1,1,0,0,0,0,0,0,0,0,0,0,0,0,0,0,0,0,0,0,0,0,0,0,0,0,0,0,0,0,0,0,0,0,0,0,0,0,0,0,0,0,0,0,0,0,0,0,0,0,0,0,0,0,0,0,0,0,0,0,0,0,0,0,0],"id":11,"left_children":[1,3,5,7,9,11,13,15,17,19,21,23,25,27,29,31,33,35,-1,37,39,41,43,45,47,49,51,53,55,57,59,61,63,65,67,69,71,73,75,77,79,81,83,85,87,89,91,93,95,97,-1,99,101,103,-1,105,107,109,111,113,115,-1,-1,-1,-1,-1,-1,-1,-1,-1,-1,-1,-1,-1,-1,-1,-1,-1,-1,-1,-1,-1,-1,-1,-1,-1,-1,-1,-1,-1,-1,-1,-1,-1,-1,-1,-1,-1,-1,-1,-1,-1,-1,-1,-1,-1,-1,-1,-1,-1,-1,-1,-1,-1,-1,-1,-1],"loss_changes":[9.946795E6,2.295204E6,1.1053985E6,2.6297225E5,2.68941E5,2.145935E5,5.175575E5,3.8205E4,1.8447128E5,1.12590555E5,1.3811162E5,8.6205875E4,1.3099425E5,1.6546252E4,3.08249E5,1.423725E4,1.04795E4,3.508403E4,0E0,5.9664008E4,1.7196555E4,9.199317E4,1.7647375E4,8.834781E4,2.5641844E4,4.339529E4,7.7804E4,1.9477645E4,4.3454185E3,9.39695E4,2.436495E5,8.50475E3,1.3233383E4,8.645594E3,4.8457812E3,2.6402062E4,8.918664E3,2.7136852E4,1.4799328E4,1.3483414E4,2.1239928E4,2.2251066E4,3.633125E4,1.31924375E4,2.0438922E4,7.333229E4,9.8666625E4,8.0313447E3,1.226075E4,1.5340561E4,0E0,6.6122125E4,2.876675E4,2.4674365E2,0E0,1.2808213E3,3.100184E3,3.9676062E4,1.0434225E5,7.710325E4,8.427493E4,0E0,0E0,0E0,0E0,0E0,0E0,0E0,0E0,0E0,0E0,0E0,0E0,0E0,0E0,0E0,0E0,0E0,0E0,0E0,0E0,0E0,0E0,0E0,0E0,0E0,0E0,0E0,0E0,0E0,0E0,0E0,0E0,0E0,0E0,0E0,0E0,0E0,0E0,0E0,0E0,0E0,0E0,0E0,0E0,0E0,0E0,0E0,0E0,0E0,0E0,0E0,0E0,0E0,0E0,0E0,0E0],"parents":[2147483647,0,0,1,1,2,2,3,3,4,4,5,5,6,6,7,7,8,8,9,9,10,10,11,11,12,12,13,13,14,14,15,15,16,16,17,17,19,19,20,20,21,21,22,22,23,23,24,24,25,25,26,26,27,27,28,28,29,29,30,30,31,31,32,32,33,33,34,34,35,35,36,36,37,37,38,38,39,39,40,40,41,41,42,42,43,43,44,44,45,45,46,46,47,47,48,48,49,49,51,51,52,52,53,53,55,55,56,56,57,57,58,58,59,59,60,60],"right_children":[2,4,6,8,10,12,14,16,18,20,22,24,26,28,30,32,34,36,-1,38,40,42,44,46,48,50,52,54,56,58,60,62,64,66,68,70,72,74,76,78,80,82,84,86,88,90,92,94,96,98,-1,100,102,104,-1,106,108,110,112,114,116,-1,-1,-1,-1,-1,-1,-1,-1,-1,-1,-1,-1,-1,-1,-1,-1,-1,-1,-1,-1,-1,-1,-1,-1,-1,-1,-1,-1,-1,-1,-1,-1,-1,-1,-1,-1,-1,-1,-1,-1,-1,-1,-1,-1,-1,-1,-1,-1,-1,-1,-1,-1,-1,-1,-1,-1],"split_conditions":[1.91E2,9.3E1,3.21E2,5.6E1,1.38E2,2.42E2,4.41395E1,3.6E1,1.33E2,1.77E1,1.99E1,1.82E1,1E3,6E0,4.93E2,5.3E1,6E-1,1.63E1,2.3572725E1,1.9E1,6.7E1,8E2,1.8E1,1.3E3,1.4E1,1.9E1,1.12E1,5.81E2,1E-45,4.78349E1,5.5E0,1.5E1,6E0,9.4248E0,2.2E1,6E0,7.7E1,-9E-1,4.9E1,1.12E2,2.46E1,2.1E1,6.3E1,8.9E1,1E-45,2.3E1,9E1,1.12E2,2.21E2,-1.3E0,5.8347673E0,1.24E1,1E-45,1E-45,1.0524184E1,4E0,-2E-1,3.5E1,2.299E3,8.2E1,1.09E2,-2.6937878E0,-2.390288E0,-5.573494E0,6.061002E-1,-2.4699798E0,-1.864855E0,-1.7842801E0,-3.0195886E-2,-1.9450219E0,-1.2264479E0,-9.924313E-1,-3.609321E-1,-1.6424168E0,-5.8453E-1,-6.406604E-2,7.5751173E-1,7.10699E-1,1.60894E0,-2.1574603E-1,4.3226175E0,-1.7448854E0,1.1123128E0,1.7870163E0,8.857567E-1,3.6425157E0,7.943301E-1,2.7464988E0,-5.192184E-1,-1.0754373E0,2.594134E0,4.47872E0,2.3737092E0,2.22359E0,-3.4792364E0,4.9069705E0,6.933858E0,-2.594907E0,1.3045579E0,5.3205004E0,2.9061277E0,7.138218E0,1.0894819E-1,3.8719827E-1,-1.146465E0,4.0651622E-1,2.8977487E0,-1.5668248E0,2.1944462E-1,9.720125E0,1.7812883E1,4.5066824E0,8.5168915E0,2.4210876E1,1.4437202E1,-9.062812E-1,1.7507866E1],"split_indices":[0,0,0,0,0,0,2,0,1,7,7,7,3,2,0,1,7,7,0,1,2,3,11,3,4,1,7,0,10,2,5,0,0,1,1,1,0,7,1,0,7,1,2,2,10,1,2,2,0,7,0,5,10,10,0,1,7,4,3,2,4,0,0,0,0,0,0,0,0,0,0,0,0,0,0,0,0,0,0,0,0,0,0,0,0,0,0,0,0,0,0,0,0,0,0,0,0,0,0,0,0,0,0,0,0,0,0,0,0,0,0,0,0,0,0,0,0],"split_type":[0,0,0,0,0,0,0,0,0,0,0,0,0,0,0,0,0,0,0,0,0,0,0,0,0,0,0,0,1,0,0,0,0,0,0,0,0,0,0,0,0,0,0,0,1,0,0,0,0,0,0,0,1,1,0,0,0,0,0,0,0,0,0,0,0,0,0,0,0,0,0,0,0,0,0,0,0,0,0,0,0,0,0,0,0,0,0,0,0,0,0,0,0,0,0,0,0,0,0,0,0,0,0,0,0,0,0,0,0,0,0,0,0,0,0,0,0],"sum_hessian":[1.9121E4,1.5973E4,3.148E3,9.961E3,6.012E3,2.397E3,7.51E2,6.596E3,3.365E3,3.459E3,2.553E3,1.321E3,1.076E3,6.3E1,6.88E2,4.403E3,2.193E3,3.363E3,2E0,2.61E3,8.49E2,2.174E3,3.79E2,1.131E3,1.9E2,5.2E1,1.024E3,5E0,5.8E1,5.69E2,1.19E2,4.375E3,2.8E1,1.011E3,1.182E3,2.453E3,9.1E2,1.321E3,1.289E3,6.75E2,1.74E2,1.74E2,2E3,2.84E2,9.5E1,2.24E2,9.07E2,1.7E1,1.73E2,4.2E1,1E1,7.81E2,2.43E2,3E0,2E0,1E1,4.8E1,3.4E1,5.35E2,1.03E2,1.6E1,1.515E3,2.86E3,3E0,2.5E1,5.68E2,4.43E2,1.166E3,1.6E1,7.35E2,1.718E3,5.08E2,4.02E2,3.2E2,1.001E3,1.01E3,2.79E2,3.21E2,3.54E2,1.64E2,1E1,1.41E2,3.3E1,6.79E2,1.321E3,2.66E2,1.8E1,6.9E1,2.6E1,9.1E1,1.33E2,4.1E2,4.97E2,1.5E1,2E0,1.2E2,5.3E1,2.7E1,1.5E1,6.38E2,1.43E2,2.37E2,6E0,1E0,2E0,8E0,2E0,3.5E1,1.3E1,2E1,1.4E1,8E1,4.55E2,1.1E1,9.2E1,1.4E1,2E0],"tree_param":{"num_deleted":"0","num_feature":"13","num_nodes":"117","size_leaf_vector":"1"}},{"base_weights":[2.1567766E-1,-8.917238E0,2.938403E1,-1.6472437E1,1.440975E0,2.471662E1,7.321857E1,-1.8494629E1,-9.356363E0,7.366684E-2,4.2542297E1,1.58207245E1,3.3468742E1,6.4364975E1,1.15565895E2,-2.002434E1,-1.1576951E1,-1.0148741E1,3.5228294E1,-3.4746375E0,1.2598776E1,2.0490051E1,8.4723976E1,1.8180522E0,2.266381E1,2.1005636E1,3.7499226E1,5.3133694E1,8.568368E1,1.3034068E2,1.7754333E1,-2.2193901E1,-1.800254E1,-7.103503E0,-1.6106218E1,-1.7564058E1,-4.4425793E0,9.645494E1,2.3457207E1,-1.2092812E1,-3.3194605E-1,9.475244E0,3.8263435E1,1.4357271E1,8.664543E1,9.709811E1,4.188993E1,-2.1019166E0,1.9667925E1,1.290484E1,2.8140718E1,1.021603E1,3.7035698E1,3.4420433E1,5.152652E1,5.6623913E1,-3.3850834E1,5.6484913E1,9.352986E1,8.384107E0,1.5919066E2,-7.7581334E-1,4.992092E0,-2.2427304E0,-8.438342E-1,-1.9372749E0,-1.2229546E0,-4.698294E-2,-1.0612283E0,-1.7020413E0,-3.360636E-1,-2.115024E0,-1.344474E0,2.545426E0,-5.47421E-1,4.414018E0,1.5285698E1,3.6769512E0,1.1897372E0,-2.4135158E0,-5.784854E-1,3.0150058E0,-1.3356338E-1,4.9868342E-1,1.5978202E0,1.9357283E0,6.196399E0,2.7935996E0,7.139202E-1,1.6675398E1,3.5760486E0,3.8795674E0,1.0530525E1,4.943147E0,-9.781087E-1,-4.606362E-1,7.4374145E-1,2.224365E0,-3.38367E0,5.013682E-1,2.037569E0,2.018453E0,4.247356E0,1.2343282E0,-9.907935E-1,3.1694188E0,8.793929E0,3.748788E0,2.1614487E0,4.559953E0,7.570714E0,5.09128E0,1.2232881E1,-3.6964157E0,-1.4265027E0,6.123624E0,-5.10528E-1,8.102016E0,1.3249384E1,9.307666E0,1.6839088E1],"categories":[0,1,2,3,5,6,7,9,10,11,12,13,14,15,2,6,7,9,11,13,14,15,0,1,2,3,4,5,6,7,9,14,15,0,2,4,6,7,8,9,10,13,15,1,2,3,4,5,7,8,9,10,11,12,13,14,3,6,8,14],"categories_nodes":[18,22,33,43,44,51],"categories_segments":[0,14,22,33,43,56],"categories_sizes":[14,8,11,10,13,4],"default_left":[0,0,0,0,0,0,0,0,0,0,0,0,0,0,0,0,0,0,1,0,0,0,1,0,0,0,0,0,0,0,0,0,0,1,0,0,0,0,0,0,0,0,0,1,1,0,0,0,0,0,0,1,0,0,0,0,0,0,0,0,0,0,0,0,0,0,0,0,0,0,0,0,0,0,0,0,0,0,0,0,0,0,0,0,0,0,0,0,0,0,0,0,0,0,0,0,0,0,0,0,0,0,0,0,0,0,0,0,0,0,0,0,0,0,0,0,0,0,0,0,0],"id":12,"left_children":[1,3,5,7,9,11,13,15,17,19,21,23,25,27,29,31,33,35,37,39,41,43,45,47,49,51,53,55,57,59,61,63,65,67,69,71,73,75,77,79,81,83,85,87,89,91,93,95,97,99,101,103,105,107,109,111,113,115,117,-1,119,-1,-1,-1,-1,-1,-1,-1,-1,-1,-1,-1,-1,-1,-1,-1,-1,-1,-1,-1,-1,-1,-1,-1,-1,-1,-1,-1,-1,-1,-1,-1,-1,-1,-1,-1,-1,-1,-1,-1,-1,-1,-1,-1,-1,-1,-1,-1,-1,-1,-1,-1,-1,-1,-1,-1,-1,-1,-1,-1,-1],"loss_changes":[5.125646E6,1.1467434E6,9.368665E5,1.21754E5,3.4735778E5,3.2242525E5,1.5790375E5,6.957825E4,6.6668E4,2.6594566E5,1.8337397E5,1.9725528E5,1.04198E5,8.33205E4,1.0607181E5,2.32915E4,2.4138531E4,7.798944E4,2.1520672E4,1.2628991E5,1.0553466E5,5.231057E4,3.1974875E4,4.7411664E4,7.355675E4,8.8349125E4,6.637575E4,7.569044E4,2.3354375E4,7.38515E4,9.414432E3,8.161375E3,2.1919562E4,1.4053777E4,6.864047E3,1.1563281E4,3.2338895E4,8.00616E3,4.025293E3,9.45098E4,1.0461198E5,3.4332906E4,6.287689E4,1.1758045E4,3.8876297E4,2.0796438E4,7.108039E3,1.3317508E4,1.7565867E4,2.9315727E4,1.000635E5,1.3307383E4,5.3224688E4,5.0137875E4,3.69635E4,8.158E4,8.247461E1,8.799039E3,3.6545812E4,0E0,8.0490625E3,0E0,0E0,0E0,0E0,0E0,0E0,0E0,0E0,0E0,0E0,0E0,0E0,0E0,0E0,0E0,0E0,0E0,0E0,0E0,0E0,0E0,0E0,0E0,0E0,0E0,0E0,0E0,0E0,0E0,0E0,0E0,0E0,0E0,0E0,0E0,0E0,0E0,0E0,0E0,0E0,0E0,0E0,0E0,0E0,0E0,0E0,0E0,0E0,0E0,0E0,0E0,0E0,0E0,0E0,0E0,0E0,0E0,0E0,0E0,0E0],"parents":[2147483647,0,0,1,1,2,2,3,3,4,4,5,5,6,6,7,7,8,8,9,9,10,10,11,11,12,12,13,13,14,14,15,15,16,16,17,17,18,18,19,19,20,20,21,21,22,22,23,23,24,24,25,25,26,26,27,27,28,28,29,29,30,30,31,31,32,32,33,33,34,34,35,35,36,36,37,37,38,38,39,39,40,40,41,41,42,42,43,43,44,44,45,45,46,46,47,47,48,48,49,49,50,50,51,51,52,52,53,53,54,54,55,55,56,56,57,57,58,58,60,60],"right_children":[2,4,6,8,10,12,14,16,18,20,22,24,26,28,30,32,34,36,38,40,42,44,46,48,50,52,54,56,58,60,62,64,66,68,70,72,74,76,78,80,82,84,86,88,90,92,94,96,98,100,102,104,106,108,110,112,114,116,118,-1,120,-1,-1,-1,-1,-1,-1,-1,-1,-1,-1,-1,-1,-1,-1,-1,-1,-1,-1,-1,-1,-1,-1,-1,-1,-1,-1,-1,-1,-1,-1,-1,-1,-1,-1,-1,-1,-1,-1,-1,-1,-1,-1,-1,-1,-1,-1,-1,-1,-1,-1,-1,-1,-1,-1,-1,-1,-1,-1,-1,-1],"split_conditions":[1.7E3,1E3,4.799E3,1.05672E1,6E1,2.4E3,7.7E3,8E2,5.4E1,1.99E1,9.9E1,-4.3E0,-8.4E0,1.32E2,8.1396E0,1.53E1,4.41395E1,-6E0,1E-45,-5.7E0,1.4E1,1.15E2,1E-45,5.8E1,1.1E1,6.5E1,1.24E2,1.04E1,-8E0,3E0,5.712E0,1.04E1,5.712E0,1E-45,2.01E1,1.2E1,4.9E0,1.15E2,1E0,1.7E1,9E-1,1.2E3,2.21E1,1E-45,1E-45,-6.4E0,2E0,1.9E0,9.6E0,8.6E1,7.8E1,1E-45,1.33E2,1.64E1,1.24E1,3.1E1,4.78349E1,-8.4E0,9.6E1,8.384107E0,3E0,-7.7581334E-1,4.992092E0,-2.2427304E0,-8.438342E-1,-1.9372749E0,-1.2229546E0,-4.698294E-2,-1.0612283E0,-1.7020413E0,-3.360636E-1,-2.115024E0,-1.344474E0,2.545426E0,-5.47421E-1,4.414018E0,1.5285698E1,3.6769512E0,1.1897372E0,-2.4135158E0,-5.784854E-1,3.0150058E0,-1.3356338E-1,4.9868342E-1,1.5978202E0,1.9357283E0,6.196399E0,2.7935996E0,7.139202E-1,1.6675398E1,3.5760486E0,3.8795674E0,1.0530525E1,4.943147E0,-9.781087E-1,-4.606362E-1,7.4374145E-1,2.224365E0,-3.38367E0,5.013682E-1,2.037569E0,2.018453E0,4.247356E0,1.2343282E0,-9.907935E-1,3.1694188E0,8.793929E0,3.748788E0,2.1614487E0,4.559953E0,7.570714E0,5.09128E0,1.2232881E1,-3.6964157E0,-1.4265027E0,6.123624E0,-5.10528E-1,8.102016E0,1.3249384E1,9.307666E0,1.6839088E1],"split_indices":[3,3,3,1,1,3,3,3,1,7,2,7,7,2,4,5,2,7,10,7,1,1,10,1,4,1,2,5,7,4,1,7,1,10,7,11,5,1,9,1,5,3,7,10,10,7,9,9,5,2,2,10,1,5,7,4,2,7,1,0,11,0,0,0,0,0,0,0,0,0,0,0,0,0,0,0,0,0,0,0,0,0,0,0,0,0,0,0,0,0,0,0,0,0,0,0,0,0,0,0,0,0,0,0,0,0,0,0,0,0,0,0,0,0,0,0,0,0,0,0,0],"split_type":[0,0,0,0,0,0,0,0,0,0,0,0,0,0,0,0,0,0,1,0,0,0,1,0,0,0,0,0,0,0,0,0,0,1,0,0,0,0,0,0,0,0,0,1,1,0,0,0,0,0,0,1,0,0,0,0,0,0,0,0,0,0,0,0,0,0,0,0,0,0,0,0,0,0,0,0,0,0,0,0,0,0,0,0,0,0,0,0,0,0,0,0,0,0,0,0,0,0,0,0,0,0,0,0,0,0,0,0,0,0,0,0,0,0,0,0,0,0,0,0,0],"sum_hessian":[1.9239E4,1.4652E4,4.587E3,8.472E3,6.18E3,4.147E3,4.4E2,6.596E3,1.876E3,5.982E3,1.98E2,2.058E3,2.089E3,3.66E2,7.4E1,5.4E3,1.196E3,1.844E3,3.2E1,4.662E3,1.32E3,1.31E2,6.7E1,6.76E2,1.382E3,5.12E2,1.577E3,2.42E2,1.24E2,6.4E1,1E1,2.6E3,2.8E3,6.03E2,5.93E2,8.01E2,1.043E3,4E0,2.8E1,1.245E3,3.417E3,1.178E3,1.42E2,1.21E2,1E1,5.1E1,1.6E1,5.55E2,1.21E2,4.98E2,8.84E2,3.07E2,2.05E2,1.296E3,2.81E2,2.33E2,9E0,2.8E1,9.6E1,2.6E1,3.8E1,6E0,4E0,2.556E3,4.4E1,2.261E3,5.39E2,2.09E2,3.94E2,5.53E2,4E1,4.26E2,3.75E2,3.4E1,1.009E3,3E0,1E0,1.2E1,1.6E1,4.27E2,8.18E2,1.08E2,3.309E3,6.98E2,4.8E2,8E1,6.2E1,4.1E1,8E1,3E0,7E0,7E0,4.4E1,1.4E1,2E0,4.4E2,1.15E2,1.16E2,5E0,2.43E2,2.55E2,5.7E2,3.14E2,2.78E2,2.9E1,1.87E2,1.8E1,1.044E3,2.52E2,2.28E2,5.3E1,2.16E2,1.7E1,7E0,2E0,2.6E1,2E0,7.5E1,2.1E1,6E0,3.2E1],"tree_param":{"num_deleted":"0","num_feature":"13","num_nodes":"121","size_leaf_vector":"1"}},{"base_weights":[1.9607319E-1,-9.120482E0,2.3805054E1,-1.5839361E1,-8.392409E-1,1.5666453E1,4.2674667E1,-1.6086134E1,3.8043137E1,-1.9529014E0,4.719734E1,5.8554316E0,2.023133E1,3.759382E1,8.390619E1,-1.7134611E1,-7.799913E0,3.0295904E1,1.10581635E2,-4.871219E0,8.834593E0,2.2731844E1,7.589493E1,9.784467E-1,2.4654335E1,3.5797623E1,1.7260105E1,2.3011833E1,4.250018E1,8.9942375E1,-8.9863114E-2,-1.9219374E1,-1.4181223E1,9.2088585E0,-1.0678389E1,3.6063942E1,-1.6709156E0,1.4521413E1,2.0658326E0,-7.6793013E0,6.5578976E0,3.916645E1,3.8627112E0,1.000309E2,1.4790644E1,4.428349E1,8.730194E1,-3.2816825E0,6.1373196E0,3.3112328E1,8.238459E0,-6.3646483E0,3.6676212E1,-7.8736997E-1,2.1301481E1,3.1293686E1,1.0517985E1,4.6156193E1,1.3053542E1,3.622892E1,1.0191949E2,-9.06436E0,2.2368843E1,-1.934932E0,4.7067413E0,-1.6885159E0,-1.1596116E0,-1.5228795E-1,1.962408E0,-1.2672846E0,2.9508406E-1,1.145153E0,4.910131E0,-1.5102633E0,4.0359545E-1,-1.6806736E0,-4.8605248E-1,-3.691187E-1,1.1997774E0,2.9172323E0,1.0655342E1,-1.7282033E-1,1.0818003E0,4.3484193E-1,1.3743421E1,8.9494324E-1,3.4310467E0,4.75512E0,-7.267632E-1,8.977263E0,-1.1939744E0,1.2760368E-1,-8.074913E-1,1.5482761E-1,1.256864E0,2.9530199E0,1.6901506E1,-3.4429723E-1,3.2558675E0,3.3015194E0,5.6067142E0,-9.483245E-1,9.786553E-1,1.4373811E0,3.7082348E0,2.5816534E0,6.081981E0,-2.6165392E0,1.5127755E0,4.1622753E0,7.7658663E0,5.523934E-1,3.4978397E0,2.3938994E0,6.4976625E0,7.2039943E0,1.1277034E1,-9.89378E-1,-7.997876E-2,4.9879074E-1,2.6499853E0],"categories":[],"categories_nodes":[],"categories_segments":[],"categories_sizes":[],"default_left":[0,0,0,0,0,0,0,0,0,0,0,0,0,0,0,0,0,0,0,0,0,0,0,0,0,0,0,0,0,0,0,0,0,0,0,0,0,0,0,0,0,0,0,0,0,0,0,0,0,0,0,0,0,0,0,0,0,0,0,0,0,0,0,0,0,0,0,0,0,0,0,0,0,0,0,0,0,0,0,0,0,0,0,0,0,0,0,0,0,0,0,0,0,0,0,0,0,0,0,0,0,0,0,0,0,0,0,0,0,0,0,0,0,0,0,0,0,0,0,0,0],"id":13,"left_children":[1,3,5,7,9,11,13,15,17,19,21,23,25,27,29,31,33,35,37,39,41,43,45,47,49,51,53,55,57,59,61,63,65,67,69,71,73,-1,-1,75,77,79,81,83,85,87,89,91,93,95,97,-1,99,101,103,105,107,109,111,113,115,117,119,-1,-1,-1,-1,-1,-1,-1,-1,-1,-1,-1,-1,-1,-1,-1,-1,-1,-1,-1,-1,-1,-1,-1,-1,-1,-1,-1,-1,-1,-1,-1,-1,-1,-1,-1,-1,-1,-1,-1,-1,-1,-1,-1,-1,-1,-1,-1,-1,-1,-1,-1,-1,-1,-1,-1,-1,-1,-1],"loss_changes":[4.2295E6,7.6716E5,8.34918E5,1.01826875E5,3.305397E5,1.7020319E5,3.402015E5,6.57035E4,1.6318863E4,1.9012734E5,9.656884E4,1.10819375E5,1.19403375E5,1.035485E5,9.0763875E4,4.114E4,4.186065E4,6.1449883E3,6.342922E3,1.5259266E5,1.9378575E5,4.578672E4,1.9211875E4,2.1140482E4,3.4299703E4,3.8593062E4,1.5909156E5,3.795558E4,1.1695925E5,1.03744E5,2.8229817E3,3.4848625E4,1.9285188E4,1.3889786E4,1.988093E4,8.422383E3,5.208719E2,0E0,0E0,9.8097125E4,5.2341297E4,1.1879041E5,4.3027098E4,2.4454266E4,7.7883184E3,3.546211E3,1.2350875E4,1.1523252E4,1.2818957E4,7.484769E4,2.4544258E4,0E0,2.7397062E4,3.6872613E4,1.942835E5,3.4331484E4,2.5592012E4,1.3544038E5,1.9947225E4,9.750348E3,3.5969875E4,6.063507E1,1.5502454E2,0E0,0E0,0E0,0E0,0E0,0E0,0E0,0E0,0E0,0E0,0E0,0E0,0E0,0E0,0E0,0E0,0E0,0E0,0E0,0E0,0E0,0E0,0E0,0E0,0E0,0E0,0E0,0E0,0E0,0E0,0E0,0E0,0E0,0E0,0E0,0E0,0E0,0E0,0E0,0E0,0E0,0E0,0E0,0E0,0E0,0E0,0E0,0E0,0E0,0E0,0E0,0E0,0E0,0E0,0E0,0E0,0E0,0E0],"parents":[2147483647,0,0,1,1,2,2,3,3,4,4,5,5,6,6,7,7,8,8,9,9,10,10,11,11,12,12,13,13,14,14,15,15,16,16,17,17,18,18,19,19,20,20,21,21,22,22,23,23,24,24,25,25,26,26,27,27,28,28,29,29,30,30,31,31,32,32,33,33,34,34,35,35,36,36,39,39,40,40,41,41,42,42,43,43,44,44,45,45,46,46,47,47,48,48,49,49,50,50,52,52,53,53,54,54,55,55,56,56,57,57,58,58,59,59,60,60,61,61,62,62],"right_children":[2,4,6,8,10,12,14,16,18,20,22,24,26,28,30,32,34,36,38,40,42,44,46,48,50,52,54,56,58,60,62,64,66,68,70,72,74,-1,-1,76,78,80,82,84,86,88,90,92,94,96,98,-1,100,102,104,106,108,110,112,114,116,118,120,-1,-1,-1,-1,-1,-1,-1,-1,-1,-1,-1,-1,-1,-1,-1,-1,-1,-1,-1,-1,-1,-1,-1,-1,-1,-1,-1,-1,-1,-1,-1,-1,-1,-1,-1,-1,-1,-1,-1,-1,-1,-1,-1,-1,-1,-1,-1,-1,-1,-1,-1,-1,-1,-1,-1,-1,-1,-1],"split_conditions":[1.5E3,9E2,2.9E3,5.3E1,6.5E1,-4.5E0,6.1E3,1.21E2,1.33E2,1.99E1,9.3E1,6E1,4E0,-8.4E0,7.1E0,6E2,5E0,4E0,3E2,2.8E1,7E0,-8E-1,-6.2E0,2.1E3,3E0,7.7112E0,3.6E0,3E0,1.64E1,-7E0,4.8552E0,8.9E1,4.4E1,1.4E2,1.5E1,-1.47E1,2.5E1,1.4521413E1,2.0658326E0,-5.7E0,-7E0,2.1E1,2.27E1,7.8E1,1.1E1,-6.4E0,1.1E3,3E0,-8.2E0,1.33E2,1.4E1,-6.3646483E0,1.14E2,7.6E1,1E1,9.6E1,7.8E1,2.8E1,8.8E1,1.45E2,3E0,7.5E1,1.45E2,-1.934932E0,4.7067413E0,-1.6885159E0,-1.1596116E0,-1.5228795E-1,1.962408E0,-1.2672846E0,2.9508406E-1,1.145153E0,4.910131E0,-1.5102633E0,4.0359545E-1,-1.6806736E0,-4.8605248E-1,-3.691187E-1,1.1997774E0,2.9172323E0,1.0655342E1,-1.7282033E-1,1.0818003E0,4.3484193E-1,1.3743421E1,8.9494324E-1,3.4310467E0,4.75512E0,-7.267632E-1,8.977263E0,-1.1939744E0,1.2760368E-1,-8.074913E-1,1.5482761E-1,1.256864E0,2.9530199E0,1.6901506E1,-3.4429723E-1,3.2558675E0,3.3015194E0,5.6067142E0,-9.483245E-1,9.786553E-1,1.4373811E0,3.7082348E0,2.5816534E0,6.081981E0,-2.6165392E0,1.5127755E0,4.1622753E0,7.7658663E0,5.523934E-1,3.4978397E0,2.3938994E0,6.4976625E0,7.2039943E0,1.1277034E1,-9.89378E-1,-7.997876E-2,4.9879074E-1,2.6499853E0],"split_indices":[3,3,3,1,1,7,3,4,1,7,2,1,12,7,5,3,12,12,1,1,12,5,7,3,12,1,7,12,5,7,1,2,4,4,1,7,2,0,0,7,7,1,7,1,12,7,3,12,7,1,11,0,2,2,12,1,2,4,4,2,4,4,2,0,0,0,0,0,0,0,0,0,0,0,0,0,0,0,0,0,0,0,0,0,0,0,0,0,0,0,0,0,0,0,0,0,0,0,0,0,0,0,0,0,0,0,0,0,0,0,0,0,0,0,0,0,0,0,0,0,0],"split_type":[0,0,0,0,0,0,0,0,0,0,0,0,0,0,0,0,0,0,0,0,0,0,0,0,0,0,0,0,0,0,0,0,0,0,0,0,0,0,0,0,0,0,0,0,0,0,0,0,0,0,0,0,0,0,0,0,0,0,0,0,0,0,0,0,0,0,0,0,0,0,0,0,0,0,0,0,0,0,0,0,0,0,0,0,0,0,0,0,0,0,0,0,0,0,0,0,0,0,0,0,0,0,0,0,0,0,0,0,0,0,0,0,0,0,0,0,0,0,0,0,0],"sum_hessian":[1.9227E4,1.3787E4,5.44E3,7.611E3,6.176E3,3.802E3,1.638E3,7.577E3,3.4E1,6.037E3,1.39E2,1.208E3,2.594E3,1.46E3,1.78E2,6.725E3,8.52E2,3.2E1,2E0,4.752E3,1.285E3,7.6E1,6.3E1,9.6E2,2.48E2,4.14E2,2.18E3,3.69E2,1.091E3,1.66E2,1.2E1,3.939E3,2.786E3,1.23E2,7.29E2,2.7E1,5E0,1E0,1E0,3.815E3,9.37E2,1.8E2,1.105E3,6E0,7E1,1.8E1,4.5E1,5.26E2,4.34E2,1.63E2,8.5E1,3E0,4.11E2,3.99E2,1.781E3,2.21E2,1.48E2,9.7E2,1.21E2,3.1E1,1.35E2,9E0,3E0,3.932E3,7E0,1.359E3,1.427E3,6.1E1,6.2E1,6.36E2,9.3E1,1E1,1.7E1,1E0,4E0,8.99E2,2.916E3,3.25E2,6.12E2,1.58E2,2.2E1,6.13E2,4.92E2,2E0,4E0,5.5E1,1.5E1,1.7E1,1E0,4.4E1,1E0,2.7E2,2.56E2,2.54E2,1.8E2,1.6E2,3E0,5.8E1,2.7E1,3.48E2,6.3E1,2.19E2,1.8E2,1.239E3,5.42E2,1.88E2,3.3E1,1.6E1,1.32E2,8.5E2,1.2E2,9.1E1,3E1,2.3E1,8E0,3.8E1,9.7E1,8E0,1E0,1E0,2E0],"tree_param":{"num_deleted":"0","num_feature":"13","num_nodes":"121","size_leaf_vector":"1"}},{"base_weights":[-1.3808018E-1,-7.0228686E0,2.463995E1,-1.3523613E1,1.5173665E0,2.062235E1,5.9041157E1,-1.4655298E1,-3.6056263E0,-2.1562116E-1,2.304259E1,1.6555136E1,3.0880033E1,-2.837754E0,6.393736E1,-1.7312963E1,-1.1504132E1,-5.1681075E0,3.1028313E1,-2.176347E1,6.704541E-1,1.5452086E1,5.5299282E1,1.2102528E1,2.394356E1,3.5378838E1,2.1455118E1,-2.2306269E1,5.155676E1,5.635796E1,1.02014E2,-1.5733812E1,-1.9995913E1,-1.3709071E1,-7.3520985E0,-6.048819E0,4.3674294E1,2.3997728E1,1.0505255E2,-2.4631855E1,-6.0185003E0,-3.6334646E0,5.446242E0,1.3790293E1,6.720334E1,6.311493E1,1.0971313E1,3.5746102E0,1.6969994E1,2.0518637E1,3.94978E1,2.1317448E1,4.088009E1,1.9649014E1,6.620773E1,-1.575981E1,-6.506036E0,9.4164095E0,1.4559074E1,5.4608067E1,1.8969702E1,6.860268E1,1.220163E2,-1.7978201E0,-1.2573578E0,-2.1107574E0,-1.7244091E0,-1.051917E0,-1.584894E0,-4.5017162E-1,-1.3083977E0,6.390121E-2,-9.765484E-1,-1.932963E-1,5.083948E0,4.073997E0,1.5001544E0,1.37953415E1,1.9625412E0,-3.3121097E0,-2.0424318E0,-1.9262097E0,-6.0071267E-2,-3.9609784E-1,4.610103E0,1.2651944E-1,1.0157853E0,-6.450804E-1,1.6169577E0,1.1068015E1,5.279837E-1,1.0004848E1,5.806446E0,-6.679794E-1,3.2098262E0,3.2054865E-1,1.1436999E1,1.6186975E0,6.1746798E0,1.7362581E0,4.5923104E0,6.7675447E0,2.496611E0,6.678071E-1,3.4268396E0,-2.9620955E0,4.1629357E0,1.7291917E0,4.580966E0,8.719956E0,4.218789E0,-2.497923E0,-8.048811E-1,-9.727921E-1,2.1362057E0,5.718881E0,1.0843881E0,2.054735E0,7.3753448E0,1.4718867E1,7.0249763E0],"categories":[],"categories_nodes":[],"categories_segments":[],"categories_sizes":[],"default_left":[0,0,0,0,0,0,0,0,0,0,0,0,0,0,0,0,0,0,0,0,0,0,0,0,0,0,0,0,0,0,0,0,0,0,0,0,0,0,0,0,0,0,0,0,0,0,0,0,0,0,0,0,0,0,0,0,0,0,0,0,0,0,0,0,0,0,0,0,0,0,0,0,0,0,0,0,0,0,0,0,0,0,0,0,0,0,0,0,0,0,0,0,0,0,0,0,0,0,0,0,0,0,0,0,0,0,0,0,0,0,0,0,0,0,0,0,0,0,0,0,0],"id":14,"left_children":[1,3,5,7,9,11,13,15,17,19,21,23,25,27,29,31,33,35,37,39,41,43,45,47,49,51,53,55,57,59,61,63,65,67,69,71,73,75,77,79,81,83,85,87,89,91,93,95,97,99,101,103,105,107,109,111,-1,-1,113,115,-1,117,119,-1,-1,-1,-1,-1,-1,-1,-1,-1,-1,-1,-1,-1,-1,-1,-1,-1,-1,-1,-1,-1,-1,-1,-1,-1,-1,-1,-1,-1,-1,-1,-1,-1,-1,-1,-1,-1,-1,-1,-1,-1,-1,-1,-1,-1,-1,-1,-1,-1,-1,-1,-1,-1,-1,-1,-1,-1,-1],"loss_changes":[3.2825242E6,8.360089E5,5.7705425E5,9.591275E4,2.4280986E5,1.5585612E5,1.3258012E5,6.4068625E4,4.76191E4,1.1505001E5,1.17895125E5,8.807356E4,4.4313E4,3.609639E4,1.11132875E5,1.7314625E4,3.2069812E4,3.639768E4,1.725545E4,1.0600477E4,1.1898983E5,3.2957195E4,3.1181062E4,6.959203E4,5.2941062E4,5.4669562E4,2.6665547E4,5.9718574E3,1.281641E4,6.8973E4,3.5737375E4,1.8385438E4,4.340875E3,1.54920625E4,1.9889852E4,2.053765E4,5.000041E3,4.8110273E3,5.7244883E3,6.503E3,2.714967E3,4.978178E4,5.40425E4,1.8549328E4,3.1722465E4,8.740219E3,5.8081206E3,2.462157E4,3.644572E4,6.5670125E4,7.242422E4,3.844828E4,2.8437438E4,1.9803367E4,2.8761016E3,1.4340386E3,0E0,0E0,1.1991525E3,3.7442E4,0E0,5.1676797E3,4.1783438E4,0E0,0E0,0E0,0E0,0E0,0E0,0E0,0E0,0E0,0E0,0E0,0E0,0E0,0E0,0E0,0E0,0E0,0E0,0E0,0E0,0E0,0E0,0E0,0E0,0E0,0E0,0E0,0E0,0E0,0E0,0E0,0E0,0E0,0E0,0E0,0E0,0E0,0E0,0E0,0E0,0E0,0E0,0E0,0E0,0E0,0E0,0E0,0E0,0E0,0E0,0E0,0E0,0E0,0E0,0E0,0E0,0E0,0E0],"parents":[2147483647,0,0,1,1,2,2,3,3,4,4,5,5,6,6,7,7,8,8,9,9,10,10,11,11,12,12,13,13,14,14,15,15,16,16,17,17,18,18,19,19,20,20,21,21,22,22,23,23,24,24,25,25,26,26,27,27,28,28,29,29,30,30,31,31,32,32,33,33,34,34,35,35,36,36,37,37,38,38,39,39,40,40,41,41,42,42,43,43,44,44,45,45,46,46,47,47,48,48,49,49,50,50,51,51,52,52,53,53,54,54,55,55,58,58,59,59,61,61,62,62],"right_children":[2,4,6,8,10,12,14,16,18,20,22,24,26,28,30,32,34,36,38,40,42,44,46,48,50,52,54,56,58,60,62,64,66,68,70,72,74,76,78,80,82,84,86,88,90,92,94,96,98,100,102,104,106,108,110,112,-1,-1,114,116,-1,118,120,-1,-1,-1,-1,-1,-1,-1,-1,-1,-1,-1,-1,-1,-1,-1,-1,-1,-1,-1,-1,-1,-1,-1,-1,-1,-1,-1,-1,-1,-1,-1,-1,-1,-1,-1,-1,-1,-1,-1,-1,-1,-1,-1,-1,-1,-1,-1,-1,-1,-1,-1,-1,-1,-1,-1,-1,-1,-1],"split_conditions":[1.8E3,1E3,4.799E3,1.7E1,4.6E1,1E2,1.0082E3,6E2,5.4E1,1.9E1,9.8E1,2E1,1.1E1,8.9E1,7.7E3,8E0,7.3E1,9.2E1,1.33E2,1.1E3,4.4E1,1.15E2,1.1E3,2.3E3,2.9E3,2.299E3,1.7E1,1.19E2,5E3,4.3E1,3E0,1.57E1,5E2,7E0,8E0,1.0088E3,5E0,7E0,3E2,9.992E2,7E0,1.45E2,1.2E3,2E0,-1E-1,9.993E2,1.6E3,1.05E2,1.15E2,1E1,1.5E0,1E1,9.981E2,1.45E2,3.1E1,6.8E3,-6.506036E0,9.4164095E0,1.05E2,1.0288E3,1.8969702E1,1.0188E3,1.0225E3,-1.7978201E0,-1.2573578E0,-2.1107574E0,-1.7244091E0,-1.051917E0,-1.584894E0,-4.5017162E-1,-1.3083977E0,6.390121E-2,-9.765484E-1,-1.932963E-1,5.083948E0,4.073997E0,1.5001544E0,1.37953415E1,1.9625412E0,-3.3121097E0,-2.0424318E0,-1.9262097E0,-6.0071267E-2,-3.9609784E-1,4.610103E0,1.2651944E-1,1.0157853E0,-6.450804E-1,1.6169577E0,1.1068015E1,5.279837E-1,1.0004848E1,5.806446E0,-6.679794E-1,3.2098262E0,3.2054865E-1,1.1436999E1,1.6186975E0,6.1746798E0,1.7362581E0,4.5923104E0,6.7675447E0,2.496611E0,6.678071E-1,3.4268396E0,-2.9620955E0,4.1629357E0,1.7291917E0,4.580966E0,8.719956E0,4.218789E0,-2.497923E0,-8.048811E-1,-9.727921E-1,2.1362057E0,5.718881E0,1.0843881E0,2.054735E0,7.3753448E0,1.4718867E1,7.0249763E0],"split_indices":[3,3,3,1,1,2,6,3,1,2,2,4,12,1,3,12,4,2,1,3,4,1,3,3,3,3,4,2,3,4,4,5,3,11,12,6,11,11,1,6,12,2,3,12,5,6,3,1,1,12,5,4,6,2,1,3,0,0,1,6,0,6,6,0,0,0,0,0,0,0,0,0,0,0,0,0,0,0,0,0,0,0,0,0,0,0,0,0,0,0,0,0,0,0,0,0,0,0,0,0,0,0,0,0,0,0,0,0,0,0,0,0,0,0,0,0,0,0,0,0,0],"split_type":[0,0,0,0,0,0,0,0,0,0,0,0,0,0,0,0,0,0,0,0,0,0,0,0,0,0,0,0,0,0,0,0,0,0,0,0,0,0,0,0,0,0,0,0,0,0,0,0,0,0,0,0,0,0,0,0,0,0,0,0,0,0,0,0,0,0,0,0,0,0,0,0,0,0,0,0,0,0,0,0,0,0,0,0,0,0,0,0,0,0,0,0,0,0,0,0,0,0,0,0,0,0,0,0,0,0,0,0,0,0,0,0,0,0,0,0,0,0,0,0,0],